booster[0]:
0:[bm<6.5] yes=1,no=2,missing=1,gain=255.927734,cover=146231.156
	1:[bm<1.5] yes=3,no=4,missing=3,gain=40.2109375,cover=116025.688
		3:[ageph<55.5] yes=7,no=8,missing=7,gain=13.6708984,cover=81035.4375
			7:leaf=-0.0381389894,cover=49579.9375
			8:leaf=-0.0408193506,cover=31455.498
		4:[fuel<0.5] yes=9,no=10,missing=9,gain=6.78710938,cover=34990.25
			9:leaf=-0.0331041776,cover=11479.3447
			10:leaf=-0.0360973291,cover=23510.9043
	2:[bm<10.5] yes=5,no=6,missing=5,gain=32.3564453,cover=30205.4707
		5:[ageph<26.5] yes=11,no=12,missing=11,gain=9.27807617,cover=19862.8926
			11:leaf=-0.0265295003,cover=4825.41748
			12:leaf=-0.0312158596,cover=15037.4746
		6:[agec<6.5] yes=13,no=14,missing=13,gain=6.33276367,cover=10342.5791
			13:leaf=-0.0263584312,cover=3765.06372
			14:leaf=-0.0211947113,cover=6577.51514
booster[1]:
0:[bm<6.5] yes=1,no=2,missing=1,gain=256.447266,cover=141085.984
	1:[bm<2.5] yes=3,no=4,missing=3,gain=40.7861328,cover=111704.883
		3:[ageph<55.5] yes=7,no=8,missing=7,gain=16.3007813,cover=86347.2031
			7:leaf=-0.0374719687,cover=54062.625
			8:leaf=-0.0403246544,cover=32284.5781
		4:[ageph<55.5] yes=9,no=10,missing=9,gain=5.92749023,cover=25357.6816
			9:leaf=-0.0330626182,cover=18940.3926
			10:leaf=-0.0362543277,cover=6417.2876
	2:[bm<10.5] yes=5,no=6,missing=5,gain=31.723877,cover=29381.0957
		5:[ageph<26.5] yes=11,no=12,missing=11,gain=9.19030762,cover=19274.4023
			11:leaf=-0.0259189606,cover=4699.08496
			12:leaf=-0.0306311157,cover=14575.3184
		6:[agec<6.5] yes=13,no=14,missing=13,gain=6.15097046,cover=10106.6924
			13:leaf=-0.0257362816,cover=3667.11914
			14:leaf=-0.0205850881,cover=6439.57324
booster[2]:
0:[bm<6.5] yes=1,no=2,missing=1,gain=256.568359,cover=136192.906
	1:[bm<1.5] yes=3,no=4,missing=3,gain=41.3417969,cover=107596.102
		3:[ageph<55.5] yes=7,no=8,missing=7,gain=14.1757813,cover=74973.2578
			7:leaf=-0.0372342356,cover=45969.3711
			8:leaf=-0.0400722288,cover=29003.8867
		4:[fuel<0.5] yes=9,no=10,missing=9,gain=7.0480957,cover=32622.8477
			9:leaf=-0.0319429561,cover=10726.8271
			10:leaf=-0.0350972041,cover=21896.0195
	2:[bm<10.5] yes=5,no=6,missing=5,gain=31.0441895,cover=28596.7969
		5:[ageph<26.5] yes=11,no=12,missing=11,gain=9.08837891,cover=18714.4824
			11:leaf=-0.02530686,cover=4578.85449
			12:leaf=-0.0300393086,cover=14135.6279
		6:[ageph<29.5] yes=13,no=14,missing=13,gain=6.26062012,cover=9882.31445
			13:leaf=-0.01876368,cover=3985.08984
			14:leaf=-0.0239135548,cover=5897.22461
booster[3]:
0:[bm<6.5] yes=1,no=2,missing=1,gain=256.267578,cover=131534.922
	1:[bm<2.5] yes=3,no=4,missing=3,gain=41.7832031,cover=103684.281
		3:[ageph<55.5] yes=7,no=8,missing=7,gain=16.8583984,cover=79991.7266
			7:leaf=-0.0365317166,cover=50190.1328
			8:leaf=-0.0395470075,cover=29801.5938
		4:[ageph<55.5] yes=9,no=10,missing=9,gain=6.15966797,cover=23692.5547
			9:leaf=-0.0319123976,cover=17712.6973
			10:leaf=-0.0352613144,cover=5979.85742
	2:[bm<10.5] yes=5,no=6,missing=5,gain=30.3201904,cover=27850.6367
		5:[ageph<26.5] yes=11,no=12,missing=11,gain=8.9732666,cover=18181.75
			11:leaf=-0.0246939156,cover=4464.43213
			12:leaf=-0.0294410624,cover=13717.3174
		6:[agec<6.5] yes=13,no=14,missing=13,gain=6.10714722,cover=9668.88574
			13:leaf=-0.0245732423,cover=3497.05225
			14:leaf=-0.0193240587,cover=6171.83398
booster[4]:
0:[bm<6.5] yes=1,no=2,missing=1,gain=255.573242,cover=127105.531
	1:[bm<1.5] yes=3,no=4,missing=3,gain=42.2666016,cover=99964.7578
		3:[ageph<55.5] yes=7,no=8,missing=7,gain=14.6230469,cover=69484.6094
			7:leaf=-0.0362831168,cover=42700.4492
			8:leaf=-0.039277792,cover=26784.1582
		4:[ageph<53.5] yes=9,no=10,missing=9,gain=7.29516602,cover=30480.1543
			9:leaf=-0.0319871604,cover=21941.252
			10:leaf=-0.0352013186,cover=8538.90332
	2:[bm<10.5] yes=5,no=6,missing=5,gain=29.5556641,cover=27140.7695
		5:[ageph<26.5] yes=11,no=12,missing=11,gain=8.84411621,cover=17674.8906
			11:leaf=-0.0240808576,cover=4355.5376
			12:leaf=-0.0288370345,cover=13319.3525
		6:[ageph<29.5] yes=13,no=14,missing=13,gain=6.18450928,cover=9465.87891
			13:leaf=-0.0175012499,cover=3828.60425
			14:leaf=-0.0227265973,cover=5637.27539
booster[5]:
0:[bm<6.5] yes=1,no=2,missing=1,gain=254.455078,cover=122890.945
	1:[bm<1.5] yes=3,no=4,missing=3,gain=42.5449219,cover=96425.5078
		3:[ageph<55.5] yes=7,no=8,missing=7,gain=14.8261719,cover=66931.4375
			7:leaf=-0.0357889123,cover=41178.9102
			8:leaf=-0.0388619676,cover=25752.5273
		4:[fuel<0.5] yes=9,no=10,missing=9,gain=7.50756836,cover=29494.0703
			9:leaf=-0.030114634,cover=9723.24512
			10:leaf=-0.0335320644,cover=19770.8242
	2:[bm<10.5] yes=5,no=6,missing=5,gain=28.7539063,cover=26465.4375
		5:[ageph<26.5] yes=11,no=12,missing=11,gain=8.70300293,cover=17192.6523
			11:leaf=-0.0234684031,cover=4251.90527
			12:leaf=-0.0282279104,cover=12940.7471
		6:[agec<6.5] yes=13,no=14,missing=13,gain=6.03353882,cover=9272.78613
			13:leaf=-0.0234164018,cover=3342.84668
			14:leaf=-0.0180868618,cover=5929.93896
booster[6]:
0:[bm<6.5] yes=1,no=2,missing=1,gain=252.902344,cover=118878.789
	1:[bm<2.5] yes=3,no=4,missing=3,gain=42.9667969,cover=93055.8125
		3:[ageph<49.5] yes=7,no=8,missing=7,gain=17.7851563,cover=71575.8828
			7:leaf=-0.0346191302,cover=34837.4688
			8:leaf=-0.0377843715,cover=36738.4102
		4:[ageph<55.5] yes=9,no=10,missing=9,gain=6.41381836,cover=21479.9316
			9:leaf=-0.0301182866,cover=16086.2959
			10:leaf=-0.0336908773,cover=5393.63525
	2:[bm<10.5] yes=5,no=6,missing=5,gain=27.9196777,cover=25822.9746
		5:[ageph<26.5] yes=11,no=12,missing=11,gain=8.54968262,cover=16733.8457
			11:leaf=-0.0228572823,cover=4153.28174
			12:leaf=-0.0276143979,cover=12580.5645
		6:[ageph<29.5] yes=13,no=14,missing=13,gain=6.07901001,cover=9089.12793
			13:leaf=-0.0162700024,cover=3687.38208
			14:leaf=-0.0215525143,cover=5401.74561
booster[7]:
0:[bm<6.5] yes=1,no=2,missing=1,gain=250.956055,cover=115063.992
	1:[bm<1.5] yes=3,no=4,missing=3,gain=43.1044922,cover=89852.2031
		3:[ageph<55.5] yes=7,no=8,missing=7,gain=15.2700195,cover=62202.9648
			7:leaf=-0.0347660445,cover=38350.5273
			8:leaf=-0.0380019508,cover=23852.4355
		4:[fuel<0.5] yes=9,no=10,missing=9,gain=7.70214844,cover=27649.2441
			9:leaf=-0.0288994201,cover=9138.34863
			10:leaf=-0.0324344896,cover=18510.8945
	2:[bm<10.5] yes=5,no=6,missing=5,gain=27.0562744,cover=25211.7813
		5:[ageph<26.5] yes=11,no=12,missing=11,gain=8.38537598,cover=16297.3379
			11:leaf=-0.0222482048,cover=4059.42554
			12:leaf=-0.0269972328,cover=12237.9121
		6:[power<39.5] yes=13,no=14,missing=13,gain=6.12127686,cover=8914.44434
			13:leaf=-0.0222482048,cover=1636.08606
			14:leaf=-0.0174648073,cover=7278.35791
booster[8]:
0:[bm<6.5] yes=1,no=2,missing=1,gain=248.404297,cover=111435.805
	1:[bm<2.5] yes=3,no=4,missing=3,gain=43.3759766,cover=86801.3203
		3:[ageph<49.5] yes=7,no=8,missing=7,gain=18.2197266,cover=66618.1563
			7:leaf=-0.0335461162,cover=32517.3848
			8:leaf=-0.0368659534,cover=34100.7734
		4:[ageph<55.5] yes=9,no=10,missing=9,gain=6.58764648,cover=20183.1602
			9:leaf=-0.0288838241,cover=15130.3613
			10:leaf=-0.0325967856,cover=5052.79834
	2:[bm<10.5] yes=5,no=6,missing=5,gain=26.0628662,cover=24634.4863
		5:[ageph<29.5] yes=11,no=12,missing=11,gain=8.29718018,cover=15882.0508
			11:leaf=-0.0221604779,cover=6143.05859
			12:leaf=-0.026871074,cover=9738.99219
		6:[agec<6.5] yes=13,no=14,missing=13,gain=6.07748413,cover=8752.43457
			13:leaf=-0.0216493011,cover=3145.90967
			14:leaf=-0.0162659641,cover=5606.5249
booster[9]:
0:[bm<6.5] yes=1,no=2,missing=1,gain=245.540039,cover=107985.297
	1:[bm<1.5] yes=3,no=4,missing=3,gain=43.4052734,cover=83901.4922
		3:[ageph<55.5] yes=7,no=8,missing=7,gain=15.6416016,cover=57921.9727
			7:leaf=-0.0337006636,cover=35790.1055
			8:leaf=-0.0370957851,cover=22131.8672
		4:[fuel<0.5] yes=9,no=10,missing=9,gain=7.84472656,cover=25979.5195
			9:leaf=-0.0277451556,cover=8609.15918
			10:leaf=-0.0313036256,cover=17370.3613
	2:[bm<10.5] yes=5,no=6,missing=5,gain=25.1774902,cover=24083.8047
		5:[ageph<29.5] yes=11,no=12,missing=11,gain=8.08666992,cover=15489.2021
			11:leaf=-0.0215444062,cover=6008.42285
			12:leaf=-0.0262505151,cover=9480.7793
		6:[ageph<29.5] yes=13,no=14,missing=13,gain=6.0625,cover=8594.60156
			13:leaf=-0.0144550474,cover=3497.22388
			14:leaf=-0.0198746156,cover=5097.37793
booster[10]:
0:[bm<6.5] yes=1,no=2,missing=1,gain=242.260742,cover=104698.18
	1:[bm<2.5] yes=3,no=4,missing=3,gain=43.5166016,cover=81138.5703
		3:[ageph<49.5] yes=7,no=8,missing=7,gain=18.5654297,cover=62129.3906
			7:leaf=-0.0324336253,cover=30417.1348
			8:leaf=-0.0359024666,cover=31712.2559
		4:[ageph<55.5] yes=9,no=10,missing=9,gain=6.734375,cover=19009.1797
			9:leaf=-0.0276238006,cover=14265.0996
			10:leaf=-0.0314675197,cover=4744.08105
	2:[bm<10.5] yes=5,no=6,missing=5,gain=24.2867432,cover=23559.6055
		5:[power<44.5] yes=11,no=12,missing=11,gain=8.14910889,cover=15115.501
			11:leaf=-0.0266094711,cover=6161.92627
			12:leaf=-0.0218683071,cover=8953.5752
		6:[power<39.5] yes=13,no=14,missing=13,gain=6.09379578,cover=8444.10449
			13:leaf=-0.020451976,cover=1545.17407
			14:leaf=-0.0156944711,cover=6898.93066
booster[11]:
0:[bm<5.5] yes=1,no=2,missing=1,gain=238.820313,cover=101579.305
	1:[bm<1.5] yes=3,no=4,missing=3,gain=34.456543,cover=75248.7656
		3:[ageph<55.5] yes=7,no=8,missing=7,gain=15.9331055,cover=54046.1797
			7:leaf=-0.032595709,cover=33472.3398
			8:leaf=-0.0361444652,cover=20573.8398
		4:[ageph<57.5] yes=9,no=10,missing=9,gain=7.52990723,cover=21202.5879
			9:leaf=-0.0281121042,cover=16486.6387
			10:leaf=-0.031565249,cover=4715.94824
	2:[bm<9.5] yes=5,no=6,missing=5,gain=32.5413818,cover=26330.5352
		5:[power<49.5] yes=11,no=12,missing=11,gain=6.47143555,cover=13694.3994
			11:leaf=-0.0270717982,cover=6295.21777
			12:leaf=-0.0228957217,cover=7399.18213
		6:[ageph<29.5] yes=13,no=14,missing=13,gain=10.0135498,cover=12636.1357
			13:leaf=-0.0145161441,cover=5224.87305
			14:leaf=-0.0202411097,cover=7411.2627
booster[12]:
0:[bm<5.5] yes=1,no=2,missing=1,gain=235.053711,cover=98612.5078
	1:[bm<1.5] yes=3,no=4,missing=3,gain=34.2412109,cover=72841.3906
		3:[ageph<55.5] yes=7,no=8,missing=7,gain=15.9873047,cover=52242.3594
			7:leaf=-0.032030385,cover=32398.875
			8:leaf=-0.035647098,cover=19843.4863
		4:[ageph<57.5] yes=9,no=10,missing=9,gain=7.52722168,cover=20599.0332
			9:leaf=-0.0274978373,cover=16029.6191
			10:leaf=-0.030994067,cover=4569.41309
	2:[bm<9.5] yes=5,no=6,missing=5,gain=31.4217529,cover=25771.1133
		5:[power<49.5] yes=11,no=12,missing=11,gain=6.33630371,cover=13358.7783
			11:leaf=-0.0264848061,cover=6127.08057
			12:leaf=-0.0222759861,cover=7231.69727
		6:[ageph<29.5] yes=13,no=14,missing=13,gain=9.54721069,cover=12412.335
			13:leaf=-0.0140023921,cover=5149.57617
			14:leaf=-0.0196396839,cover=7262.75879
booster[13]:
0:[bm<5.5] yes=1,no=2,missing=1,gain=230.94043,cover=95789.7578
	1:[bm<1.5] yes=3,no=4,missing=3,gain=33.9663086,cover=70550.9531
		3:[ageph<49.5] yes=7,no=8,missing=7,gain=16.1342773,cover=50526.1523
			7:leaf=-0.0309664588,cover=23990.4395
			8:leaf=-0.0345568247,cover=26535.7109
		4:[ageph<57.5] yes=9,no=10,missing=9,gain=7.51379395,cover=20024.8047
			9:leaf=-0.0268800501,cover=15594.8438
			10:leaf=-0.0304158684,cover=4429.96094
	2:[bm<9.5] yes=5,no=6,missing=5,gain=30.2823486,cover=25238.8047
		5:[power<49.5] yes=11,no=12,missing=11,gain=6.19000244,cover=13039.3213
			11:leaf=-0.0258958824,cover=5966.93604
			12:leaf=-0.0216592532,cover=7072.38477
		6:[power<44.5] yes=13,no=14,missing=13,gain=9.2119751,cover=12199.4844
			13:leaf=-0.0198477358,cover=5354.43115
			14:leaf=-0.0143024428,cover=6845.05322
booster[14]:
0:[bm<6.5] yes=1,no=2,missing=1,gain=226.505859,cover=93104.1016
	1:[bm<2.5] yes=3,no=4,missing=3,gain=42.6079102,cover=71408.9922
		3:[ageph<57.5] yes=7,no=8,missing=7,gain=18.9106445,cover=54400.5391
			7:leaf=-0.030703349,cover=36572.0938
			8:leaf=-0.0346861295,cover=17828.4473
		4:[ageph<55.5] yes=9,no=10,missing=9,gain=6.73620605,cover=17008.4473
			9:leaf=-0.02510483,cover=12801.5391
			10:leaf=-0.0291389134,cover=4206.90918
	2:[bm<10.5] yes=5,no=6,missing=5,gain=21.6079102,cover=21695.1133
		5:[ageph<29.5] yes=11,no=12,missing=11,gain=8.2444458,cover=13810.1924
			11:leaf=-0.0182934701,cover=5385.55615
			12:leaf=-0.023316348,cover=8424.63672
		6:[agec<6.5] yes=13,no=14,missing=13,gain=6.41453552,cover=7884.91943
			13:leaf=-0.0180758387,cover=2827.68945
			14:leaf=-0.0126397228,cover=5057.23047
booster[15]:
0:[bm<5.5] yes=1,no=2,missing=1,gain=221.822754,cover=90546.3281
	1:[bm<1.5] yes=3,no=4,missing=3,gain=33.4648438,cover=66297.9219
		3:[ageph<49.5] yes=7,no=8,missing=7,gain=16.2382813,cover=47350.7109
			7:leaf=-0.0297774952,cover=22555.6504
			8:leaf=-0.033496704,cover=24795.0605
		4:[ageph<57.5] yes=9,no=10,missing=9,gain=7.45361328,cover=18947.2148
			9:leaf=-0.0256237518,cover=14779.6494
			10:leaf=-0.029235905,cover=4167.56494
	2:[bm<9.5] yes=5,no=6,missing=5,gain=28.2542725,cover=24248.4004
		5:[fuel<0.5] yes=11,no=12,missing=11,gain=6.36932373,cover=12451.666
			11:leaf=-0.0191621985,cover=4027.3418
			12:leaf=-0.0240156408,cover=8424.32422
		6:[ageph<29.5] yes=13,no=14,missing=13,gain=9.26577759,cover=11796.7354
			13:leaf=-0.0122916233,cover=4913.76758
			14:leaf=-0.0179835316,cover=6882.96729
booster[16]:
0:[bm<5.5] yes=1,no=2,missing=1,gain=216.808594,cover=88114.7578
	1:[bm<1.5] yes=3,no=4,missing=3,gain=33.0087891,cover=64325.4023
		3:[ageph<55.5] yes=7,no=8,missing=7,gain=16.2431641,cover=45872.1641
			7:leaf=-0.0296794418,cover=28586.3672
			8:leaf=-0.0335740186,cover=17285.7988
		4:[ageph<57.5] yes=9,no=10,missing=9,gain=7.40649414,cover=18453.2344
			9:leaf=-0.0249999743,cover=14405.749
			10:leaf=-0.0286402497,cover=4047.48633
	2:[bm<9.5] yes=5,no=6,missing=5,gain=27.0631714,cover=23789.3555
		5:[power<49.5] yes=11,no=12,missing=11,gain=6.32623291,cover=12175.3223
			11:leaf=-0.0241220407,cover=5559.56982
			12:leaf=-0.0197269805,cover=6615.75244
		6:[sex<0.5] yes=13,no=14,missing=13,gain=9.36193848,cover=11614.0322
			13:leaf=-0.0184541643,cover=4211.70605
			14:leaf=-0.0129250903,cover=7402.32666
booster[17]:
0:[bm<5.5] yes=1,no=2,missing=1,gain=211.399902,cover=85804.3203
	1:[bm<1.5] yes=3,no=4,missing=3,gain=32.4951172,cover=62448.7656
		3:[ageph<49.5] yes=7,no=8,missing=7,gain=16.2231445,cover=44465.4883
			7:leaf=-0.0285596345,cover=21253.6523
			8:leaf=-0.0323943906,cover=23211.8359
		4:[ageph<57.5] yes=9,no=10,missing=9,gain=7.34838867,cover=17983.2793
			9:leaf=-0.0243757833,cover=14050.0703
			10:leaf=-0.0280400757,cover=3933.20947
	2:[bm<9.5] yes=5,no=6,missing=5,gain=25.8601074,cover=23355.5488
		5:[fuel<0.5] yes=11,no=12,missing=11,gain=6.30126953,cover=11913.5889
			11:leaf=-0.0178885069,cover=3865.68237
			12:leaf=-0.0228164177,cover=8047.90625
		6:[power<44.5] yes=13,no=14,missing=13,gain=9.19445801,cover=11441.9609
			13:leaf=-0.017774554,cover=5006.20654
			14:leaf=-0.0120542301,cover=6435.75488
booster[18]:
0:[bm<6.5] yes=1,no=2,missing=1,gain=205.95166,cover=83603.5313
	1:[bm<2.5] yes=3,no=4,missing=3,gain=40.5874023,cover=63435.8086
		3:[ageph<57.5] yes=7,no=8,missing=7,gain=18.9326172,cover=48066.4688
			7:leaf=-0.0283036679,cover=32462.3184
			8:leaf=-0.0325520262,cover=15604.1504
		4:[ageph<55.5] yes=9,no=10,missing=9,gain=6.57904053,cover=15369.3408
			9:leaf=-0.022570366,cover=11603.6865
			10:leaf=-0.0267288871,cover=3765.65479
	2:[bm<10.5] yes=5,no=6,missing=5,gain=18.7780151,cover=20167.7227
		5:[ageph<30.5] yes=11,no=12,missing=11,gain=8.2052002,cover=12739.3496
			11:leaf=-0.0160435475,cover=5462.32715
			12:leaf=-0.0211824328,cover=7277.02197
		6:[agec<6.5] yes=13,no=14,missing=13,gain=6.39852142,cover=7428.37402
			13:leaf=-0.0158152562,cover=2656.66821
			14:leaf=-0.0104250945,cover=4771.70557
booster[19]:
0:[bm<5.5] yes=1,no=2,missing=1,gain=200.112793,cover=81508.9297
	1:[bm<0.5] yes=3,no=4,missing=3,gain=32.1816406,cover=58963.7617
		3:[ageph<49.5] yes=7,no=8,missing=7,gain=13.2414551,cover=28886.6504
			7:leaf=-0.027942298,cover=13083.8135
			8:leaf=-0.0322355665,cover=15802.8369
		4:[ageph<55.5] yes=9,no=10,missing=9,gain=10.7677002,cover=30077.1133
			9:leaf=-0.0243932325,cover=21678.918
			10:leaf=-0.027942298,cover=8398.19434
	2:[bm<9.5] yes=5,no=6,missing=5,gain=23.7612305,cover=22545.166
		5:[power<49.5] yes=11,no=12,missing=11,gain=6.40643311,cover=11431.3906
			11:leaf=-0.0223562922,cover=5208.25
			12:leaf=-0.0178389307,cover=6223.14063
		6:[ageph<29.5] yes=13,no=14,missing=13,gain=9.04620361,cover=11113.7754
			13:leaf=-0.0101525951,cover=4647.65967
			14:leaf=-0.0159418546,cover=6466.11572
booster[20]:
0:[bm<5.5] yes=1,no=2,missing=1,gain=194.121094,cover=79518.8828
	1:[bm<0.5] yes=3,no=4,missing=3,gain=31.6005859,cover=57348.1016
		3:[ageph<49.5] yes=7,no=8,missing=7,gain=13.1245117,cover=28024.8242
			7:leaf=-0.0273351707,cover=12723.2803
			8:leaf=-0.0316648148,cover=15301.5449
		4:[ageph<55.5] yes=9,no=10,missing=9,gain=10.6224365,cover=29323.2754
			9:leaf=-0.0237693787,cover=21156.498
			10:leaf=-0.0273351707,cover=8166.77734
	2:[bm<9.5] yes=5,no=6,missing=5,gain=22.6282959,cover=22170.7793
		5:[fuel<0.5] yes=11,no=12,missing=11,gain=6.29498291,cover=11206.2148
			11:leaf=-0.0162269175,cover=3648.41309
			12:leaf=-0.0210760068,cover=7557.80225
		6:[sex<0.5] yes=13,no=14,missing=13,gain=9.07484436,cover=10964.5635
			13:leaf=-0.0162269175,cover=3959.30249
			14:leaf=-0.0108433003,cover=7005.26123
booster[21]:
0:[bm<2.5] yes=1,no=2,missing=1,gain=188.914063,cover=77626.0781
	1:[ageph<57.5] yes=3,no=4,missing=3,gain=18.5510254,cover=44107.1836
		3:[fuel<0.5] yes=7,no=8,missing=7,gain=8.08251953,cover=29899.3457
			7:leaf=-0.0242520645,cover=10647.8506
			8:leaf=-0.027700359,cover=19251.4961
		4:[fuel<0.5] yes=9,no=10,missing=9,gain=4.54870605,cover=14207.8359
			9:leaf=-0.02710394,cover=2661.41382
			10:leaf=-0.0317368135,cover=11546.4219
	2:[bm<9.5] yes=5,no=6,missing=5,gain=46.081543,cover=33518.8984
		5:[fuel<0.5] yes=11,no=12,missing=11,gain=11.1661377,cover=22693.6113
			11:leaf=-0.0173336938,cover=7521.06885
			12:leaf=-0.0220545828,cover=15172.543
		6:[power<39.5] yes=13,no=14,missing=13,gain=9.61456299,cover=10825.2852
			13:leaf=-0.0165249351,cover=1980.89465
			14:leaf=-0.0110339345,cover=8844.39063
booster[22]:
0:[bm<2.5] yes=1,no=2,missing=1,gain=183.029053,cover=75823.4141
	1:[ageph<57.5] yes=3,no=4,missing=3,gain=18.2854004,cover=42894.2422
		3:[fuel<0.5] yes=7,no=8,missing=7,gain=7.91259766,cover=29118.2656
			7:leaf=-0.0236284342,cover=10392.7246
			8:leaf=-0.0270836391,cover=18725.543
		4:[fuel<0.5] yes=9,no=10,missing=9,gain=4.50537109,cover=13775.9766
			9:leaf=-0.0264845025,cover=2590.2478
			10:leaf=-0.0311589632,cover=11185.7285
	2:[bm<9.5] yes=5,no=6,missing=5,gain=43.6543579,cover=32929.1758
		5:[fuel<0.5] yes=11,no=12,missing=11,gain=10.7250366,cover=22233.4063
			11:leaf=-0.0167685766,cover=7391.82373
			12:leaf=-0.0214390717,cover=14841.582
		6:[power<39.5] yes=13,no=14,missing=13,gain=9.2436676,cover=10695.7686
			13:leaf=-0.0159984808,cover=1948.42944
			14:leaf=-0.0106054433,cover=8747.33984
booster[23]:
0:[bm<2.5] yes=1,no=2,missing=1,gain=176.994385,cover=74108.5938
	1:[ageph<49.5] yes=3,no=4,missing=3,gain=18.0915527,cover=41740.3438
		3:[fuel<0.5] yes=7,no=8,missing=7,gain=4.77819824,cover=20883.8301
			7:leaf=-0.0225637387,cover=7629.604
			8:leaf=-0.0257245991,cover=13254.2256
		4:[fuel<0.5] yes=9,no=10,missing=9,gain=8.7166748,cover=20856.5156
			9:leaf=-0.0251045823,cover=5042.98145
			10:leaf=-0.0299014132,cover=15813.5342
	2:[bm<7.5] yes=5,no=6,missing=5,gain=41.3991699,cover=32368.25
		5:[fuel<0.5] yes=11,no=12,missing=11,gain=7.40875244,cover=16410.7285
			11:leaf=-0.0173385385,cover=5535.80957
			12:leaf=-0.0217289533,cover=10874.918
		6:[ageph<29.5] yes=13,no=14,missing=13,gain=13.4601135,cover=15957.5234
			13:leaf=-0.00971920416,cover=6615.27734
			14:leaf=-0.0156179359,cover=9342.24609
booster[24]:
0:[bm<2.5] yes=1,no=2,missing=1,gain=170.979248,cover=72473.2188
	1:[ageph<57.5] yes=3,no=4,missing=3,gain=17.8513184,cover=40642.6367
		3:[fuel<0.5] yes=7,no=8,missing=7,gain=7.51867676,cover=27659.4688
			7:leaf=-0.0223807823,cover=9917.32715
			8:leaf=-0.0258324426,cover=17742.1426
		4:[fuel<0.5] yes=9,no=10,missing=9,gain=4.38928223,cover=12983.166
			9:leaf=-0.0252580978,cover=2460.00781
			10:leaf=-0.0299942829,cover=10523.1592
	2:[bm<9.5] yes=5,no=6,missing=5,gain=39.9794922,cover=31830.5859
		5:[ageph<31.5] yes=11,no=12,missing=11,gain=10.2913208,cover=21396.0234
			11:leaf=-0.015365568,cover=6418.67432
			12:leaf=-0.0201593097,cover=14977.3496
		6:[sex<0.5] yes=13,no=14,missing=13,gain=8.94795227,cover=10434.5625
			13:leaf=-0.0149459913,cover=3751.43555
			14:leaf=-0.00897264201,cover=6683.12744
booster[25]:
0:[bm<5.5] yes=1,no=2,missing=1,gain=164.945068,cover=70916.8359
	1:[bm<0.5] yes=3,no=4,missing=3,gain=30.1418457,cover=50404.6484
		3:[ageph<49.5] yes=7,no=8,missing=7,gain=12.7346191,cover=24407.332
			7:leaf=-0.0242768507,cover=11187.2607
			8:leaf=-0.0288319532,cover=13220.0713
		4:[ageph<55.5] yes=9,no=10,missing=9,gain=10.0491943,cover=25997.3184
			9:leaf=-0.0205833409,cover=18838.0723
			10:leaf=-0.0242768507,cover=7159.24414
	2:[bm<10.5] yes=5,no=6,missing=5,gain=18.4410095,cover=20512.1895
		5:[power<46.5] yes=11,no=12,missing=11,gain=9.02963257,cover=13699.1357
			11:leaf=-0.0188049804,cover=5520.23389
			12:leaf=-0.0135640102,cover=8178.90234
		6:[agec<6.5] yes=13,no=14,missing=13,gain=6.60120773,cover=6813.05371
			13:leaf=-0.0124926465,cover=2430.99536
			14:leaf=-0.0069372952,cover=4382.05811
booster[26]:
0:[bm<2.5] yes=1,no=2,missing=1,gain=159.834229,cover=69443.7969
	1:[ageph<57.5] yes=3,no=4,missing=3,gain=17.2375488,cover=38628.668
		3:[fuel<0.5] yes=7,no=8,missing=7,gain=7.49328613,cover=26358.5762
			7:leaf=-0.0210986324,cover=9472.06055
			8:leaf=-0.0246252678,cover=16886.5156
		4:[fuel<0.5] yes=9,no=10,missing=9,gain=4.44281006,cover=12270.0898
			9:leaf=-0.0239426494,cover=2334.11938
			10:leaf=-0.0288322996,cover=9935.9707
	2:[bm<7.5] yes=5,no=6,missing=5,gain=36.0269775,cover=30815.1309
		5:[fuel<0.5] yes=11,no=12,missing=11,gain=7.34832764,cover=15472.7705
			11:leaf=-0.0154920593,cover=5236.58105
			12:leaf=-0.0199745335,cover=10236.1895
		6:[ageph<29.5] yes=13,no=14,missing=13,gain=12.7649078,cover=15342.3613
			13:leaf=-0.00829279516,cover=6387.12891
			14:leaf=-0.0141469836,cover=8955.23242
booster[27]:
0:[bm<2.5] yes=1,no=2,missing=1,gain=153.554199,cover=68036.1953
	1:[ageph<49.5] yes=3,no=4,missing=3,gain=17.003418,cover=37682.5469
		3:[ageph<34.5] yes=7,no=8,missing=7,gain=4.45214844,cover=18988.793
			7:leaf=-0.0194001645,cover=4230.50049
			8:leaf=-0.022892369,cover=14758.293
		4:[fuel<0.5] yes=9,no=10,missing=9,gain=8.43896484,cover=18693.7539
			9:leaf=-0.0225725286,cover=4571.45947
			10:leaf=-0.0275355317,cover=14122.2939
	2:[bm<9.5] yes=5,no=6,missing=5,gain=34.5568237,cover=30353.6504
		5:[fuel<0.5] yes=11,no=12,missing=11,gain=10.0316162,cover=20268.6621
			11:leaf=-0.0138623985,cover=6791.62354
			12:leaf=-0.018582074,cover=13477.0381
		6:[power<44.5] yes=13,no=14,missing=13,gain=8.99402618,cover=10084.9883
			13:leaf=-0.0132425549,cover=4383.05566
			14:leaf=-0.00721551478,cover=5701.93262
booster[28]:
0:[bm<2.5] yes=1,no=2,missing=1,gain=147.283691,cover=66695.0391
	1:[ageph<57.5] yes=3,no=4,missing=3,gain=16.6022949,cover=36781.6602
		3:[fuel<0.5] yes=7,no=8,missing=7,gain=7.27807617,cover=25162.2305
			7:leaf=-0.0198348146,cover=9070.62793
			8:leaf=-0.0233887192,cover=16091.6025
		4:[fuel<0.5] yes=9,no=10,missing=9,gain=4.26470947,cover=11619.4277
			9:leaf=-0.0227187611,cover=2228.03394
			10:leaf=-0.0276247803,cover=9391.39355
	2:[bm<7.5] yes=5,no=6,missing=5,gain=32.9385376,cover=29913.377
		5:[fuel<0.5] yes=11,no=12,missing=11,gain=6.68249512,cover=14934.125
			11:leaf=-0.0144744581,cover=5085.09814
			12:leaf=-0.018830305,cover=9849.02734
		6:[power<44.5] yes=13,no=14,missing=13,gain=12.1473999,cover=14979.252
			13:leaf=-0.0141099393,cover=6305.42529
			14:leaf=-0.00836091489,cover=8673.82617
booster[29]:
0:[bm<2.5] yes=1,no=2,missing=1,gain=140.992432,cover=65421.6055
	1:[ageph<49.5] yes=3,no=4,missing=3,gain=16.3399658,cover=35925.5898
		3:[ageph<34.5] yes=7,no=8,missing=7,gain=4.3694458,cover=18167.8809
			7:leaf=-0.0182677805,cover=4058.79126
			8:leaf=-0.0216608588,cover=14109.0889
		4:[fuel<0.5] yes=9,no=10,missing=9,gain=8.0291748,cover=17757.7109
			9:leaf=-0.0213588309,cover=4375.35938
			10:leaf=-0.0263123866,cover=13382.3516
	2:[bm<9.5] yes=5,no=6,missing=5,gain=31.3845215,cover=29496.0156
		5:[power<66.5] yes=11,no=12,missing=11,gain=9.62197876,cover=19617.418
			11:leaf=-0.0170033239,cover=16028.5918
			12:leaf=-0.0124606853,cover=3588.82568
		6:[sex<0.5] yes=13,no=14,missing=13,gain=8.39920807,cover=9878.59766
			13:leaf=-0.0124606853,cover=3531.80493
			14:leaf=-0.00681692129,cover=6346.79297
booster[30]:
0:[bm<2.5] yes=1,no=2,missing=1,gain=134.854492,cover=64204.2852
	1:[ageph<58.5] yes=3,no=4,missing=3,gain=15.8964844,cover=35109.8008
		3:[fuel<0.5] yes=7,no=8,missing=7,gain=7.1204834,cover=24710.582
			7:leaf=-0.0186583791,cover=8897.33203
			8:leaf=-0.0222054627,cover=15813.249
		4:[agec<1.5] yes=9,no=10,missing=9,gain=4.65332031,cover=10399.2188
			9:leaf=-0.0177085083,cover=427.075684
			10:leaf=-0.0260501634,cover=9972.14258
	2:[bm<7.5] yes=5,no=6,missing=5,gain=29.8594055,cover=29094.4844
		5:[fuel<0.5] yes=11,no=12,missing=11,gain=6.51992798,cover=14442.3857
			11:leaf=-0.0133684082,cover=4930.08447
			12:leaf=-0.0177085083,cover=9512.30078
		6:[ageph<29.5] yes=13,no=14,missing=13,gain=12.425293,cover=14652.0996
			13:leaf=-0.00648247031,cover=6119.28174
			14:leaf=-0.0123892017,cover=8532.81738
booster[31]:
0:[bm<2.5] yes=1,no=2,missing=1,gain=128.607056,cover=63051.5898
	1:[ageph<49.5] yes=3,no=4,missing=3,gain=15.6137695,cover=34334.1406
		3:[ageph<34.5] yes=7,no=8,missing=7,gain=4.25909424,cover=17424.1406
			7:leaf=-0.0171596687,cover=3903.08032
			8:leaf=-0.0204433333,cover=13521.0596
		4:[fuel<0.5] yes=9,no=10,missing=9,gain=7.77941895,cover=16910
			9:leaf=-0.0201103464,cover=4190.44727
			10:leaf=-0.0250959452,cover=12719.5537
	2:[bm<9.5] yes=5,no=6,missing=5,gain=28.1777039,cover=28717.4473
		5:[ageph<31.5] yes=11,no=12,missing=11,gain=9.51416016,cover=19022.0781
			11:leaf=-0.0115485927,cover=5762.89648
			12:leaf=-0.0163369942,cover=13259.1826
		6:[coverage<1.5] yes=13,no=14,missing=13,gain=8.21379089,cover=9695.36816
			13:leaf=-0.0115485927,cover=2933.60938
			14:leaf=-0.00626652781,cover=6761.75879
booster[32]:
0:[bm<2.5] yes=1,no=2,missing=1,gain=122.359741,cover=61955.957
	1:[ageph<58.5] yes=3,no=4,missing=3,gain=15.1109619,cover=33595.4609
		3:[fuel<0.5] yes=7,no=8,missing=7,gain=6.82415771,cover=23702.1211
			7:leaf=-0.0174432714,cover=8561.70117
			8:leaf=-0.0209855493,cover=15140.4199
		4:[agec<1.5] yes=9,no=10,missing=9,gain=4.60058594,cover=9893.33887
			9:leaf=-0.016619198,cover=409.627167
			10:leaf=-0.0248344056,cover=9483.71191
	2:[bm<7.5] yes=5,no=6,missing=5,gain=26.722168,cover=28360.4961
		5:[power<68.5] yes=11,no=12,missing=11,gain=6.38702393,cover=13995.9131
			11:leaf=-0.0163182449,cover=11545.0811
			12:leaf=-0.0121982424,cover=2450.83203
		6:[power<44.5] yes=13,no=14,missing=13,gain=11.6841049,cover=14364.583
			13:leaf=-0.0121982424,cover=6026.89746
			14:leaf=-0.00669616787,cover=8337.68652
booster[33]:
0:[bm<2.5] yes=1,no=2,missing=1,gain=116.42981,cover=60908.8203
	1:[ageph<49.5] yes=3,no=4,missing=3,gain=14.8273926,cover=32893.6172
		3:[agec<17.5] yes=7,no=8,missing=7,gain=4.19775391,cover=16751.2695
			7:leaf=-0.0182400625,cover=16621.3789
			8:leaf=-0.0362911969,cover=129.890625
		4:[bm<0.5] yes=9,no=10,missing=9,gain=7.59515381,cover=16142.3486
			9:leaf=-0.0241644513,cover=10799.5332
			10:leaf=-0.0195396673,cover=5342.81592
	2:[bm<10.5] yes=5,no=6,missing=5,gain=25.6385803,cover=28015.2012
		5:[ageph<29.5] yes=11,no=12,missing=11,gain=13.9528198,cover=21706.3574
			11:leaf=-0.00970568135,cover=5811.55371
			12:leaf=-0.0148726422,cover=15894.8027
		6:[agec<6.5] yes=13,no=14,missing=13,gain=6.84306526,cover=6308.84424
			13:leaf=-0.00970568135,cover=2243.87427
			14:leaf=-0.00360564073,cover=4064.96973
booster[34]:
0:[bm<5.5] yes=1,no=2,missing=1,gain=110.772461,cover=59915.457
	1:[bm<0.5] yes=3,no=4,missing=3,gain=25.637085,cover=41512.5234
		3:[ageph<46.5] yes=7,no=8,missing=7,gain=10.9589233,cover=19774.7852
			7:leaf=-0.0188641902,cover=7498.23975
			8:leaf=-0.0232159775,cover=12276.5459
		4:[ageph<55.5] yes=9,no=10,missing=9,gain=8.67352295,cover=21737.7383
			9:leaf=-0.0151244942,cover=15860.1533
			10:leaf=-0.0188641902,cover=5877.58594
	2:[power<38.5] yes=5,no=6,missing=5,gain=15.9906464,cover=18402.9316
		5:[ageph<20.5] yes=11,no=12,missing=11,gain=2.35218811,cover=2659.69385
			11:leaf=0.0057160547,cover=59.4908981
			12:leaf=-0.0140861142,cover=2600.20288
		6:[coverage<1.5] yes=13,no=14,missing=13,gain=14.9143906,cover=15743.2383
			13:leaf=-0.0122592999,cover=5610.06885
			14:leaf=-0.00583158946,cover=10133.1699
booster[35]:
0:[bm<2.5] yes=1,no=2,missing=1,gain=105.184082,cover=58982.3945
	1:[fuel<0.5] yes=3,no=4,missing=3,gain=14.8862305,cover=31605.3594
		3:[ageph<52.5] yes=7,no=8,missing=7,gain=1.59230042,cover=9833.23047
			7:leaf=-0.0151979765,cover=6848.85107
			8:leaf=-0.0179876294,cover=2984.37939
		4:[ageph<46.5] yes=9,no=10,missing=9,gain=10.2021484,cover=21772.1289
			9:leaf=-0.0180075914,cover=8420.54102
			10:leaf=-0.0224615838,cover=13351.5889
	2:[ageph<29.5] yes=5,no=6,missing=5,gain=23.2228088,cover=27377.0332
		5:[sex<0.5] yes=11,no=12,missing=11,gain=15.7710304,cover=8292.99414
			11:leaf=-0.0122938119,cover=2928.22461
			12:leaf=-0.00316945883,cover=5364.76953
		6:[bm<10.5] yes=13,no=14,missing=13,gain=11.0965881,cover=19084.0391
			13:leaf=-0.0138990497,cover=15462.0215
			14:leaf=-0.00774604548,cover=3622.01733
booster[36]:
0:[bm<2.5] yes=1,no=2,missing=1,gain=99.5421143,cover=58084.9336
	1:[fuel<0.5] yes=3,no=4,missing=3,gain=14.2424316,cover=31002.0234
		3:[power<58.5] yes=7,no=8,missing=7,gain=1.61616516,cover=9676.72656
			7:leaf=-0.0146393497,cover=6728.15967
			8:leaf=-0.017467482,cover=2948.56714
		4:[ageph<46.5] yes=9,no=10,missing=9,gain=9.81268311,cover=21325.2969
			9:leaf=-0.0174325407,cover=8270.2627
			10:leaf=-0.0218438338,cover=13055.0342
	2:[bm<10.5] yes=5,no=6,missing=5,gain=22.0980225,cover=27082.9082
		5:[ageph<32.5] yes=11,no=12,missing=11,gain=12.1425476,cover=20908.9512
			11:leaf=-0.00876293611,cover=7636.7334
			12:leaf=-0.0137705002,cover=13272.2178
		6:[agec<6.5] yes=13,no=14,missing=13,gain=6.26650047,cover=6173.95752
			13:leaf=-0.00853701029,cover=2184.42578
			14:leaf=-0.00273504457,cover=3989.53174
booster[37]:
0:[bm<6.5] yes=1,no=2,missing=1,gain=94.2248535,cover=57233.4922
	1:[bm<0.5] yes=3,no=4,missing=3,gain=26.3553467,cover=41346.8789
		3:[ageph<46.5] yes=7,no=8,missing=7,gain=10.1262817,cover=18624.7754
			7:leaf=-0.0170676019,cover=7114.81055
			8:leaf=-0.0214550141,cover=11509.9639
		4:[fuel<0.5] yes=9,no=10,missing=9,gain=8.94476318,cover=22722.1016
			9:leaf=-0.0122856526,cover=7555.12305
			10:leaf=-0.0159526803,cover=15166.9795
	2:[power<38.5] yes=5,no=6,missing=5,gain=13.037941,cover=15886.6133
		5:[fuel<0.5] yes=11,no=12,missing=11,gain=2.55179214,cover=2347.95166
			11:leaf=0.0021922912,cover=121.460136
			12:leaf=-0.0122856526,cover=2226.4917
		6:[coverage<1.5] yes=13,no=14,missing=13,gain=12.8762703,cover=13538.6611
			13:leaf=-0.0107176704,cover=4684.30127
			14:leaf=-0.00423410488,cover=8854.36035
booster[38]:
0:[bm<2.5] yes=1,no=2,missing=1,gain=89.1125488,cover=56422.2188
	1:[fuel<0.5] yes=3,no=4,missing=3,gain=13.4758301,cover=29890.4316
		3:[power<58.5] yes=7,no=8,missing=7,gain=1.55415344,cover=9371.78125
			7:leaf=-0.0135557353,cover=6522.09033
			8:leaf=-0.0163509361,cover=2849.69092
		4:[ageph<46.5] yes=9,no=10,missing=9,gain=9.18798828,cover=20518.6504
			9:leaf=-0.0163186658,cover=7993.92285
			10:leaf=-0.0206662305,cover=12524.7285
	2:[ageph<29.5] yes=5,no=6,missing=5,gain=20.2766266,cover=26531.7852
		5:[sex<0.5] yes=11,no=12,missing=11,gain=14.7197876,cover=8108.13281
			11:leaf=-0.0112000881,cover=2844.92017
			12:leaf=-0.0022725903,cover=5263.2124
		6:[fuel<0.5] yes=13,no=14,missing=13,gain=10.2470398,cover=18423.6523
			13:leaf=-0.00800707284,cover=5987.97754
			14:leaf=-0.0130450753,cover=12435.6748
booster[39]:
0:[bm<5.5] yes=1,no=2,missing=1,gain=84.236084,cover=55650.0508
	1:[ageph<57.5] yes=3,no=4,missing=3,gain=22.3968506,cover=38057.375
		3:[bm<1.5] yes=7,no=8,missing=7,gain=12.0557861,cover=27143.5918
			7:leaf=-0.0159282945,cover=17842.0313
			8:leaf=-0.011756504,cover=9301.56055
		4:[bm<0.5] yes=9,no=10,missing=9,gain=4.92025757,cover=10913.7852
			9:leaf=-0.0216430426,cover=6147.37256
			10:leaf=-0.0173454788,cover=4766.4126
	2:[power<38.5] yes=5,no=6,missing=5,gain=14.3351593,cover=17592.6758
		5:[ageph<19.5] yes=11,no=12,missing=11,gain=2.16831207,cover=2516.80029
			11:leaf=0.0261851605,cover=14.1582613
			12:leaf=-0.011756504,cover=2502.64209
		6:[coverage<1.5] yes=13,no=14,missing=13,gain=12.8421021,cover=15075.876
			13:leaf=-0.0102351466,cover=5321.97412
			14:leaf=-0.00412761001,cover=9753.90137
booster[40]:
0:[bm<6.5] yes=1,no=2,missing=1,gain=78.9954224,cover=54922.5703
	1:[bm<0.5] yes=3,no=4,missing=3,gain=23.2374268,cover=39400.5
		3:[fuel<0.5] yes=7,no=8,missing=7,gain=9.71704102,cover=17621.3301
			7:leaf=-0.0154515551,cover=5436.55469
			8:leaf=-0.0195291638,cover=12184.7754
		4:[ageph<55.5] yes=9,no=10,missing=9,gain=7.92190552,cover=21779.1719
			9:leaf=-0.01183959,cover=16055.7598
			10:leaf=-0.0154515551,cover=5723.41113
	2:[power<44.5] yes=5,no=6,missing=5,gain=11.6908569,cover=15522.0703
		5:[fuel<0.5] yes=11,no=12,missing=11,gain=9.83473206,cover=6359.83301
			11:leaf=-0.00329474593,cover=1755.75171
			12:leaf=-0.0109824454,cover=4604.08105
		6:[coverage<1.5] yes=13,no=14,missing=13,gain=8.34820747,cover=9162.2373
			13:leaf=-0.00843590777,cover=3374.56543
			14:leaf=-0.00217792671,cover=5787.67236
booster[41]:
0:[bm<2.5] yes=1,no=2,missing=1,gain=74.2565918,cover=54229.832
	1:[fuel<0.5] yes=3,no=4,missing=3,gain=12.5665894,cover=28415.5156
		3:[power<58.5] yes=7,no=8,missing=7,gain=1.47325134,cover=8959.18555
			7:leaf=-0.0121651143,cover=6240.44824
			8:leaf=-0.0147471894,cover=2718.73682
		4:[power<75.5] yes=9,no=10,missing=9,gain=8.58886719,cover=19456.3301
			9:leaf=-0.0182709042,cover=16026.0068
			10:leaf=-0.012748668,cover=3430.323
	2:[bm<10.5] yes=5,no=6,missing=5,gain=18.3592072,cover=25814.3184
		5:[ageph<32.5] yes=11,no=12,missing=11,gain=9.7878418,cover=19846.2441
			11:leaf=-0.00701699033,cover=7324.00879
			12:leaf=-0.0116212619,cover=12522.2354
		6:[agec<6.5] yes=13,no=14,missing=13,gain=5.55760288,cover=5968.0752
			13:leaf=-0.00675936416,cover=2096.84229
			14:leaf=-0.0013015077,cover=3871.23291
booster[42]:
0:[bm<2.5] yes=1,no=2,missing=1,gain=69.5395508,cover=53565.918
	1:[ageph<58.5] yes=3,no=4,missing=3,gain=12.2268066,cover=27966.6523
		3:[fuel<0.5] yes=7,no=8,missing=7,gain=5.17193604,cover=19906.1328
			7:leaf=-0.011872571,cover=7299.32129
			8:leaf=-0.0152235618,cover=12606.8125
		4:[agec<1.5] yes=9,no=10,missing=9,gain=4.6567688,cover=8060.51953
			9:leaf=-0.0117209321,cover=336.101654
			10:leaf=-0.0191812627,cover=7724.41797
	2:[ageph<29.5] yes=5,no=6,missing=5,gain=17.2220459,cover=25599.2637
		5:[sex<0.5] yes=11,no=12,missing=11,gain=13.5820971,cover=7898.271
			11:leaf=-0.00989993941,cover=2751.85547
			12:leaf=-0.00119738374,cover=5146.41553
		6:[fuel<0.5] yes=13,no=14,missing=13,gain=9.57119751,cover=17700.9922
			13:leaf=-0.0065050791,cover=5779.52637
			14:leaf=-0.0114659602,cover=11921.4668
booster[43]:
0:[bm<6.5] yes=1,no=2,missing=1,gain=65.8638916,cover=52931.9805
	1:[ageph<49.5] yes=3,no=4,missing=3,gain=20.5990601,cover=37729.0313
		3:[power<37.5] yes=7,no=8,missing=7,gain=7.49945068,cover=20848.1582
			7:leaf=-0.0173989944,cover=1993.74829
			8:leaf=-0.0109455204,cover=18854.4082
		4:[bm<0.5] yes=9,no=10,missing=9,gain=9.17214966,cover=16880.875
			9:leaf=-0.0184916537,cover=8833.68945
			10:leaf=-0.0138181988,cover=8047.18604
	2:[power<44.5] yes=5,no=6,missing=5,gain=11.1286469,cover=15202.9492
		5:[fuel<0.5] yes=11,no=12,missing=11,gain=8.64196777,cover=6212.39453
			11:leaf=-0.00259403419,cover=1729.59668
			12:leaf=-0.00976895355,cover=4482.79785
		6:[coverage<1.5] yes=13,no=14,missing=13,gain=7.60281372,cover=8990.55469
			13:leaf=-0.00744326925,cover=3295.19312
			14:leaf=-0.00140849536,cover=5695.36182
booster[44]:
0:[bm<2.5] yes=1,no=2,missing=1,gain=61.5785522,cover=52339.5547
	1:[fuel<0.5] yes=3,no=4,missing=3,gain=11.4082642,cover=27152.8945
		3:[power<58.5] yes=7,no=8,missing=7,gain=1.36435699,cover=8613.87012
			7:leaf=-0.0108662378,cover=6004.30859
			8:leaf=-0.0132871764,cover=2609.56128
		4:[bm<0.5] yes=9,no=10,missing=9,gain=8.26913452,cover=18539.0254
			9:leaf=-0.0173751786,cover=11371.7246
			10:leaf=-0.0130320434,cover=7167.30029
	2:[bm<10.5] yes=5,no=6,missing=5,gain=16.0669098,cover=25186.6582
		5:[power<66.5] yes=11,no=12,missing=11,gain=9.5397644,cover=19313.3828
			11:leaf=-0.00994616281,cover=15874.3984
			12:leaf=-0.00583955413,cover=3438.98389
		6:[agec<6.5] yes=13,no=14,missing=13,gain=5.12243366,cover=5873.27686
			13:leaf=-0.00583955413,cover=2055.0979
			14:leaf=-0.000629755377,cover=3818.17871
booster[45]:
0:[bm<6.5] yes=1,no=2,missing=1,gain=57.609314,cover=51760.0391
	1:[ageph<57.5] yes=3,no=4,missing=3,gain=19.5774536,cover=36737.457
		3:[bm<0.5] yes=7,no=8,missing=7,gain=10.0742798,cover=26512.6816
			7:leaf=-0.0136221303,cover=10753.3945
			8:leaf=-0.00964976568,cover=15759.2881
		4:[agec<1.5] yes=9,no=10,missing=9,gain=5.21307373,cover=10224.7744
			9:leaf=-0.00902040023,cover=423.286621
			10:leaf=-0.0169168748,cover=9801.4873
	2:[power<44.5] yes=5,no=6,missing=5,gain=10.5133247,cover=15022.584
		5:[fuel<0.5] yes=11,no=12,missing=11,gain=7.91983414,cover=6123.0708
			11:leaf=-0.00215897383,cover=1713.74561
			12:leaf=-0.00902040023,cover=4409.3252
		6:[ageph<30.5] yes=13,no=14,missing=13,gain=6.98861027,cover=8899.5127
			13:leaf=7.53114073e-05,cover=3828.37744
			14:leaf=-0.00558445789,cover=5071.13525
booster[46]:
0:[bm<2.5] yes=1,no=2,missing=1,gain=54.1334839,cover=51223.7461
	1:[fuel<0.5] yes=3,no=4,missing=3,gain=10.8158875,cover=26409.9785
		3:[power<58.5] yes=7,no=8,missing=7,gain=1.23490143,cover=8405.95703
			7:leaf=-0.0100516649,cover=5863.64893
			8:leaf=-0.0123254033,cover=2542.30835
		4:[power<75.5] yes=9,no=10,missing=9,gain=8.46047974,cover=18004.0215
			9:leaf=-0.0156949405,cover=14810.4395
			10:leaf=-0.0100516649,cover=3193.58154
	2:[ageph<29.5] yes=5,no=6,missing=5,gain=14.4759598,cover=24813.7676
		5:[sex<0.5] yes=11,no=12,missing=11,gain=12.2297935,cover=7724.03223
			11:leaf=-0.00867914036,cover=2669.84644
			12:leaf=-0.000313233235,cover=5054.18604
		6:[fuel<0.5] yes=13,no=14,missing=13,gain=8.74533844,cover=17089.7344
			13:leaf=-0.00518439896,cover=5607.87061
			14:leaf=-0.010003821,cover=11481.8643
booster[47]:
0:[bm<6.5] yes=1,no=2,missing=1,gain=50.3571472,cover=50703.4414
	1:[ageph<49.5] yes=3,no=4,missing=3,gain=18.2233582,cover=35846.0313
		3:[power<37.5] yes=7,no=8,missing=7,gain=7.08653259,cover=19904.6836
			7:leaf=-0.0155887948,cover=1887.76306
			8:leaf=-0.00914610457,cover=18016.9199
		4:[fuel<0.5] yes=9,no=10,missing=9,gain=8.42889404,cover=15941.3486
			9:leaf=-0.0104338275,cover=4178.75537
			10:leaf=-0.0156680942,cover=11762.5938
	2:[power<44.5] yes=5,no=6,missing=5,gain=9.83912277,cover=14857.4111
		5:[fuel<0.5] yes=11,no=12,missing=11,gain=7.02368927,cover=6039.02344
			11:leaf=-0.00185673218,cover=1702.90369
			12:leaf=-0.00831451174,cover=4336.12012
		6:[coverage<1.5] yes=13,no=14,missing=13,gain=6.90495682,cover=8818.38672
			13:leaf=-0.00641405443,cover=3216.74414
			14:leaf=-0.000601387525,cover=5601.64307
booster[48]:
0:[bm<2.5] yes=1,no=2,missing=1,gain=47.7437744,cover=50220.9805
	1:[ageph<58.5] yes=3,no=4,missing=3,gain=9.84927368,cover=25748.4648
		3:[agec<17.5] yes=7,no=8,missing=7,gain=4.61434937,cover=18428.6211
			7:leaf=-0.0109922802,cover=18279.791
			8:leaf=-0.028636843,cover=148.82901
		4:[agec<1.5] yes=9,no=10,missing=9,gain=4.27497864,cover=7319.84424
			9:leaf=-0.00928587466,cover=309.680328
			10:leaf=-0.0160764214,cover=7010.16406
	2:[ageph<25.5] yes=5,no=6,missing=5,gain=13.373497,cover=24472.5137
		5:[power<66.5] yes=11,no=12,missing=11,gain=8.18332195,cover=3553.93457
			11:leaf=-0.00237132818,cover=3098.13989
			12:leaf=0.0119657721,cover=455.794769
		6:[power<39.5] yes=13,no=14,missing=13,gain=9.13965607,cover=20918.5781
			13:leaf=-0.00928587466,cover=3044.79834
			14:leaf=-0.00606360985,cover=17873.7813
booster[49]:
0:[bm<1.5] yes=1,no=2,missing=1,gain=44.3510437,cover=49764.2344
	1:[ageph<46.5] yes=3,no=4,missing=3,gain=8.30029297,cover=22700.9258
		3:[agec<17.5] yes=7,no=8,missing=7,gain=3.50398254,cover=9455.79297
			7:leaf=-0.009828276,cover=9392.60449
			8:leaf=-0.0333056599,cover=63.1880226
		4:[fuel<0.5] yes=9,no=10,missing=9,gain=6.34762573,cover=13245.1328
			9:leaf=-0.010265829,cover=3577.06543
			10:leaf=-0.0152033269,cover=9668.06738
	2:[bm<10.5] yes=5,no=6,missing=5,gain=14.7212906,cover=27063.3105
		5:[power<46.5] yes=11,no=12,missing=11,gain=10.0484543,cover=21323.541
			11:leaf=-0.00925714523,cover=7909.62012
			12:leaf=-0.0057112216,cover=13413.9199
		6:[agec<7.5] yes=13,no=14,missing=13,gain=4.8619976,cover=5739.77002
			13:leaf=-0.00461719185,cover=2420.375
			14:leaf=0.000741997559,cover=3319.39502
booster[50]:
0:[ageph<31.5] yes=1,no=2,missing=1,gain=41.7766113,cover=49329.9375
	1:[sex<0.5] yes=3,no=4,missing=3,gain=11.4531116,cover=10651.1826
		3:[power<68.5] yes=7,no=8,missing=7,gain=8.23476028,cover=3632.59302
			7:leaf=-0.00898199808,cover=3368.2561
			8:leaf=0.00932182092,cover=264.336823
		4:[agec<9.5] yes=9,no=10,missing=9,gain=12.8480606,cover=7018.58984
			9:leaf=-0.00345412712,cover=4995.26953
			10:leaf=0.00598961161,cover=2023.32019
	2:[bm<0.5] yes=5,no=6,missing=5,gain=21.2282715,cover=38678.7539
		5:[fuel<0.5] yes=11,no=12,missing=11,gain=7.25914001,cover=14780.375
			11:leaf=-0.0107318275,cover=4613.21143
			12:leaf=-0.0146817444,cover=10167.1631
		6:[fuel<0.5] yes=13,no=14,missing=13,gain=8.62611389,cover=23898.3789
			13:leaf=-0.00558425626,cover=7777.90674
			14:leaf=-0.00964049529,cover=16120.4727
booster[51]:
0:[bm<7.5] yes=1,no=2,missing=1,gain=39.1220703,cover=48901.8242
	1:[ageph<57.5] yes=3,no=4,missing=3,gain=15.9866943,cover=36294.707
		3:[power<33.5] yes=7,no=8,missing=7,gain=9.41563416,cover=26641.293
			7:leaf=-0.0161277801,cover=1596.03125
			8:leaf=-0.0082052527,cover=25045.2617
		4:[ageph<77.5] yes=9,no=10,missing=9,gain=4.91517639,cover=9653.41309
			9:leaf=-0.0140506355,cover=9006.8252
			10:leaf=-0.00671123806,cover=646.587646
	2:[sex<0.5] yes=5,no=6,missing=5,gain=8.54084778,cover=12607.1201
		5:[power<68.5] yes=11,no=12,missing=11,gain=4.8061142,cover=4408.69141
			11:leaf=-0.00671123806,cover=4030.6355
			12:leaf=0.00455421535,cover=378.055847
		6:[ageph<36.5] yes=13,no=14,missing=13,gain=13.074461,cover=8198.42871
			13:leaf=0.00154825218,cover=5100.85645
			14:leaf=-0.00668723509,cover=3097.57202
booster[52]:
0:[bm<1.5] yes=1,no=2,missing=1,gain=36.7044373,cover=48503.6602
	1:[agec<1.5] yes=3,no=4,missing=3,gain=7.35827637,cover=21944.0742
		3:[power<35] yes=7,no=8,missing=7,gain=1.00707054,cover=1085.62158
			7:leaf=-0.0295127127,cover=21.3201942
			8:leaf=-0.00820060819,cover=1064.30139
		4:[ageph<58.5] yes=9,no=10,missing=9,gain=6.85028076,cover=20858.4531
			9:leaf=-0.0104256999,cover=14692.043
			10:leaf=-0.0144006684,cover=6166.40967
	2:[power<39.5] yes=5,no=6,missing=5,gain=12.7343521,cover=26559.5859
		5:[fuel<0.5] yes=11,no=12,missing=11,gain=2.50479889,cover=3893.57983
			11:leaf=9.70568726e-05,cover=363.776276
			12:leaf=-0.00820060819,cover=3529.80347
		6:[bm<10.5] yes=13,no=14,missing=13,gain=12.2366982,cover=22666.0059
			13:leaf=-0.00557237584,cover=17962.6816
			14:leaf=0.000157254966,cover=4703.3252
booster[53]:
0:[ageph<30.5] yes=1,no=2,missing=1,gain=35.0917664,cover=48125.9375
	1:[sex<0.5] yes=3,no=4,missing=3,gain=9.62178898,cover=9396.06641
		3:[power<33.5] yes=7,no=8,missing=7,gain=6.03232765,cover=3186.09888
			7:leaf=-0.0177025106,cover=423.009552
			8:leaf=-0.00488803117,cover=2763.08936
		4:[agec<9.5] yes=9,no=10,missing=9,gain=11.0273066,cover=6209.96777
			9:leaf=-0.00254279329,cover=4395.61279
			10:leaf=0.0067214407,cover=1814.35498
	2:[agec<1.5] yes=5,no=6,missing=5,gain=19.4047241,cover=38729.8711
		5:[coverage<1.5] yes=11,no=12,missing=11,gain=3.9514327,cover=1720.12732
			11:leaf=0.00443793787,cover=1236.59753
			12:leaf=-0.00621504942,cover=483.529724
		6:[bm<0.5] yes=13,no=14,missing=13,gain=22.0598145,cover=37009.7422
			13:leaf=-0.0126198307,cover=13634.7285
			14:leaf=-0.0075576962,cover=23375.0137
booster[54]:
0:[ageph<30.5] yes=1,no=2,missing=1,gain=32.3040009,cover=47761.6367
	1:[power<33.5] yes=3,no=4,missing=3,gain=9.0618782,cover=9376.24414
		3:[bm<10.5] yes=7,no=8,missing=7,gain=1.9833231,cover=735.767395
			7:leaf=-0.0164945107,cover=476.917267
			8:leaf=-0.00559598766,cover=258.850159
		4:[agec<10.5] yes=9,no=10,missing=9,gain=6.74407148,cover=8640.47754
			9:leaf=-0.00259054895,cover=6764.73828
			10:leaf=0.00418469217,cover=1875.73865
	2:[bm<0.5] yes=5,no=6,missing=5,gain=17.9564819,cover=38385.3906
		5:[fuel<0.5] yes=11,no=12,missing=11,gain=6.72210693,cover=14232.3467
			11:leaf=-0.00915346574,cover=4475.67139
			12:leaf=-0.0129233776,cover=9756.6748
		6:[fuel<0.5] yes=13,no=14,missing=13,gain=8.17946625,cover=24153.0449
			13:leaf=-0.00427923864,cover=7922.20996
			14:leaf=-0.00819989946,cover=16230.835
booster[55]:
0:[bm<7.5] yes=1,no=2,missing=1,gain=30.2662048,cover=47410.3164
	1:[ageph<57.5] yes=3,no=4,missing=3,gain=13.593277,cover=35003.7891
		3:[power<33.5] yes=7,no=8,missing=7,gain=8.54595947,cover=25773.0098
			7:leaf=-0.0145611661,cover=1524.74597
			8:leaf=-0.00684281299,cover=24248.2637
		4:[ageph<77.5] yes=9,no=10,missing=9,gain=4.6812973,cover=9230.77832
			9:leaf=-0.0124046421,cover=8608.83008
			10:leaf=-0.00560564734,cover=621.947815
	2:[power<44.5] yes=5,no=6,missing=5,gain=7.73272038,cover=12406.5293
		5:[fuel<0.5] yes=11,no=12,missing=11,gain=5.07914352,cover=5098.32031
			11:leaf=0.000315177662,cover=1448.75549
			12:leaf=-0.00560564734,cover=3649.5647
		6:[agec<5.5] yes=13,no=14,missing=13,gain=5.94053221,cover=7308.20898
			13:leaf=-0.00441877358,cover=2654.84229
			14:leaf=0.00150840008,cover=4653.3667
booster[56]:
0:[ageph<31.5] yes=1,no=2,missing=1,gain=28.5308838,cover=47088.6836
	1:[power<67.5] yes=3,no=4,missing=3,gain=9.73384666,cover=10422.0498
		3:[sex<0.5] yes=7,no=8,missing=7,gain=8.36553764,cover=8860.22363
			7:leaf=-0.00740536815,cover=3230.70264
			8:leaf=-0.00102188869,cover=5629.52148
		4:[power<192] yes=9,no=10,missing=9,gain=3.96760178,cover=1561.82568
			9:leaf=0.00495266728,cover=1560.02893
			10:leaf=0.0700000003,cover=1.79678667
	2:[agec<1.5] yes=5,no=6,missing=5,gain=18.1790466,cover=36666.6328
		5:[power<82.5] yes=11,no=12,missing=11,gain=4.47409105,cover=1648.5459
			11:leaf=0.000488051883,cover=1477.65833
			12:leaf=0.0175345372,cover=170.88765
		6:[bm<0.5] yes=13,no=14,missing=13,gain=16.7952423,cover=35018.0859
			13:leaf=-0.0113182152,cover=13067.4805
			14:leaf=-0.00678924704,cover=21950.6074
booster[57]:
0:[bm<5.5] yes=1,no=2,missing=1,gain=26.4753876,cover=46775.1289
	1:[ageph<46.5] yes=3,no=4,missing=3,gain=12.5989227,cover=30879.3711
		3:[agec<17.5] yes=7,no=8,missing=7,gain=5.20391846,cover=14613.0557
			7:leaf=-0.00580572616,cover=14503.1953
			8:leaf=-0.0275617298,cover=109.860329
		4:[fuel<0.5] yes=9,no=10,missing=9,gain=5.74269104,cover=16266.3154
			9:leaf=-0.00700211292,cover=4555.16455
			10:leaf=-0.0111899599,cover=11711.1504
	2:[power<66.5] yes=5,no=6,missing=5,gain=8.24738598,cover=15895.7568
		5:[fuel<0.5] yes=11,no=12,missing=11,gain=8.876297,cover=13291.5928
			11:leaf=-0.000551556586,cover=4677.55469
			12:leaf=-0.00559144421,cover=8614.03906
		6:[coverage<1.5] yes=13,no=14,missing=13,gain=4.475914,cover=2604.16406
			13:leaf=-0.00286882394,cover=1077.22131
			14:leaf=0.00554619217,cover=1526.94275
booster[58]:
0:[ageph<30.5] yes=1,no=2,missing=1,gain=25.1691589,cover=46480.8789
	1:[power<33.5] yes=3,no=4,missing=3,gain=7.80895138,cover=9265.56836
		3:[sex<0.5] yes=7,no=8,missing=7,gain=1.85503674,cover=713.191467
			7:leaf=-0.0159930214,cover=401.478943
			8:leaf=-0.00568952737,cover=311.712524
		4:[agec<10.5] yes=9,no=10,missing=9,gain=6.06297302,cover=8552.37695
			9:leaf=-0.00202688552,cover=6684.67383
			10:leaf=0.00441622688,cover=1867.703
	2:[agec<1.5] yes=5,no=6,missing=5,gain=16.7899475,cover=37215.3125
		5:[power<35] yes=11,no=12,missing=11,gain=3.74702883,cover=1686.33325
			11:leaf=-0.0304708332,cover=32.858078
			12:leaf=0.00313746347,cover=1653.4751
		6:[bm<0.5] yes=13,no=14,missing=13,gain=16.6161041,cover=35528.9805
			13:leaf=-0.0106050288,cover=12931.251
			14:leaf=-0.00610963395,cover=22597.7285
booster[59]:
0:[ageph<57.5] yes=1,no=2,missing=1,gain=24.235672,cover=46197.6289
	1:[bm<9.5] yes=3,no=4,missing=3,gain=19.8322067,cover=36302.9375
		3:[power<66.5] yes=7,no=8,missing=7,gain=11.2166824,cover=28692.5547
			7:leaf=-0.00689458987,cover=22893.2813
			8:leaf=-0.00299196015,cover=5799.27393
		4:[sex<0.5] yes=9,no=10,missing=9,gain=5.55992651,cover=7610.38281
			9:leaf=-0.00299196015,cover=2672.65454
			10:leaf=0.00190325791,cover=4937.72803
	2:[fuel<0.5] yes=5,no=6,missing=5,gain=6.58539581,cover=9894.69043
		5:[bm<18.5] yes=11,no=12,missing=11,gain=4.12095833,cover=2157.91016
			11:leaf=-0.00557984551,cover=2153.09473
			12:leaf=0.0700000003,cover=4.8154254
		6:[ageph<77.5] yes=13,no=14,missing=13,gain=4.72385406,cover=7736.78027
			13:leaf=-0.0123253772,cover=7130.72217
			14:leaf=-0.00312321214,cover=606.058472
booster[60]:
0:[ageph<57.5] yes=1,no=2,missing=1,gain=22.4081421,cover=45923.5586
	1:[bm<9.5] yes=3,no=4,missing=3,gain=17.9417953,cover=36129.7383
		3:[power<66.5] yes=7,no=8,missing=7,gain=10.4477158,cover=28517.9336
			7:leaf=-0.00659874454,cover=22735.9844
			8:leaf=-0.00286250794,cover=5781.94922
		4:[sex<0.5] yes=9,no=10,missing=9,gain=5.09667301,cover=7611.80518
			9:leaf=-0.00286250794,cover=2664.67017
			10:leaf=0.00180523377,cover=4947.13525
	2:[fuel<0.5] yes=5,no=6,missing=5,gain=6.1211853,cover=9793.82031
		5:[bm<18.5] yes=11,no=12,missing=11,gain=3.6662941,cover=2146.27856
			11:leaf=-0.00533331791,cover=2141.11401
			12:leaf=0.0700000003,cover=5.16458321
		6:[agec<14.5] yes=13,no=14,missing=13,gain=4.53404999,cover=7647.5415
			13:leaf=-0.010477311,cover=7092.95166
			14:leaf=-0.0198709853,cover=554.589905
booster[61]:
0:[bm<0.5] yes=1,no=2,missing=1,gain=21.186676,cover=45662.9648
	1:[fuel<0.5] yes=3,no=4,missing=3,gain=6.17261505,cover=13645.8672
		3:[power<36] yes=7,no=8,missing=7,gain=1.22031784,cover=4357.77246
			7:leaf=-0.0376419201,cover=11.4543037
			8:leaf=-0.00628888933,cover=4346.31836
		4:[power<69.5] yes=9,no=10,missing=9,gain=7.20179749,cover=9288.09473
			9:leaf=-0.0116952034,cover=7162.48389
			10:leaf=-0.00628888933,cover=2125.61108
	2:[ageph<26.5] yes=5,no=6,missing=5,gain=11.0791359,cover=32017.0977
		5:[sex<0.5] yes=11,no=12,missing=11,gain=5.99119282,cover=4584.99316
			11:leaf=-0.00443646545,cover=1552.43762
			12:leaf=0.00320011936,cover=3032.55566
		6:[power<44.5] yes=13,no=14,missing=13,gain=8.454422,cover=27432.1055
			13:leaf=-0.00628888933,cover=9682.43555
			14:leaf=-0.00334198773,cover=17749.6699
booster[62]:
0:[ageph<57.5] yes=1,no=2,missing=1,gain=20.1045837,cover=45421.6172
	1:[bm<9.5] yes=3,no=4,missing=3,gain=15.5493584,cover=35790.7969
		3:[power<33.5] yes=7,no=8,missing=7,gain=9.58033752,cover=28199.2266
			7:leaf=-0.0123272939,cover=1720.0697
			8:leaf=-0.00462670857,cover=26479.1563
		4:[coverage<1.5] yes=9,no=10,missing=9,gain=4.45493507,cover=7591.56934
			9:leaf=-0.0025475116,cover=2189.88452
			10:leaf=0.00162146415,cover=5401.68506
	2:[fuel<0.5] yes=5,no=6,missing=5,gain=5.52966309,cover=9630.82227
		5:[bm<18.5] yes=11,no=12,missing=11,gain=3.20428276,cover=2124.3938
			11:leaf=-0.00486836722,cover=2118.87744
			12:leaf=0.0653875247,cover=5.51616049
		6:[ageph<77.5] yes=13,no=14,missing=13,gain=4.52947998,cover=7506.42822
			13:leaf=-0.0111562926,cover=6914.17383
			14:leaf=-0.00204041763,cover=592.254456
booster[63]:
0:[ageph<30.5] yes=1,no=2,missing=1,gain=18.8866348,cover=45193.6758
	1:[power<33.5] yes=3,no=4,missing=3,gain=6.94645166,cover=9145.07617
		3:[ageph<20.5] yes=7,no=8,missing=7,gain=1.74376392,cover=693.736023
			7:leaf=0.0127384113,cover=30.2460575
			8:leaf=-0.0115094846,cover=663.489929
		4:[agec<10.5] yes=9,no=10,missing=9,gain=5.24749231,cover=8451.33984
			9:leaf=-0.00135677168,cover=6591.92041
			10:leaf=0.00465698261,cover=1859.4198
	2:[agec<1.5] yes=5,no=6,missing=5,gain=15.6710052,cover=36048.5977
		5:[coverage<1.5] yes=11,no=12,missing=11,gain=3.62332654,cover=1650.19641
			11:leaf=0.00651442865,cover=1190.84851
			12:leaf=-0.00393298548,cover=459.3479
		6:[bm<0.5] yes=13,no=14,missing=13,gain=13.1364288,cover=34398.4023
			13:leaf=-0.0089696357,cover=12411.4697
			14:leaf=-0.00489990413,cover=21986.9316
booster[64]:
0:[ageph<49.5] yes=1,no=2,missing=1,gain=18.0501785,cover=44973.8945
	1:[power<33.5] yes=3,no=4,missing=3,gain=11.2691898,cover=29155.957
		3:[bm<15.5] yes=7,no=8,missing=7,gain=1.63599205,cover=2024.4375
			7:leaf=-0.0106190927,cover=2011.0592
			8:leaf=0.0233440697,cover=13.3783722
		4:[bm<9.5] yes=9,no=10,missing=9,gain=10.2629967,cover=27131.5195
			9:leaf=-0.00371868699,cover=20842.5547
			10:leaf=0.00089018821,cover=6288.96484
	2:[agec<1.5] yes=5,no=6,missing=5,gain=8.450737,cover=15817.9375
		5:[coverage<0.5] yes=11,no=12,missing=11,gain=3.59975958,cover=695.52124
			11:leaf=0.0111150639,cover=322.325592
			12:leaf=-0.00329331914,cover=373.195618
		6:[power<169.5] yes=13,no=14,missing=13,gain=7.66988373,cover=15122.417
			13:leaf=-0.00794478133,cover=15110.3164
			14:leaf=0.0686367899,cover=12.0999146
booster[65]:
0:[ageph<57.5] yes=1,no=2,missing=1,gain=16.9336548,cover=44764.8672
	1:[bm<9.5] yes=3,no=4,missing=3,gain=12.4239006,cover=35352.5469
		3:[power<66.5] yes=7,no=8,missing=7,gain=8.98891068,cover=27782.3008
			7:leaf=-0.00540211005,cover=22121.207
			8:leaf=-0.00214323541,cover=5661.09326
		4:[sex<0.5] yes=9,no=10,missing=9,gain=4.23948622,cover=7570.24854
			9:leaf=-0.00214323541,cover=2635.15503
			10:leaf=0.00193077547,cover=4935.09375
	2:[agec<14.5] yes=5,no=6,missing=5,gain=5.24773788,cover=9412.31934
		5:[ageph<81.5] yes=11,no=12,missing=11,gain=4.53910828,cover=8804.70898
			11:leaf=-0.00796120893,cover=8588.27246
			12:leaf=0.00667819148,cover=216.436493
		6:[power<31.5] yes=13,no=14,missing=13,gain=1.6457653,cover=607.609985
			13:leaf=-0.0365045518,cover=40.7864914
			14:leaf=-0.0157577507,cover=566.823486
booster[66]:
0:[bm<0.5] yes=1,no=2,missing=1,gain=15.9865952,cover=44560.4883
	1:[fuel<0.5] yes=3,no=4,missing=3,gain=5.35613251,cover=13173.0381
		3:[power<36] yes=7,no=8,missing=7,gain=1.17767334,cover=4230.49463
			7:leaf=-0.0368619673,cover=10.6952143
			8:leaf=-0.00509423018,cover=4219.79932
		4:[power<74.5] yes=9,no=10,missing=9,gain=6.45570374,cover=8942.54297
			9:leaf=-0.0100176558,cover=7215.02832
			10:leaf=-0.00509423018,cover=1727.51477
	2:[power<44.5] yes=5,no=6,missing=5,gain=9.72953033,cover=31387.4512
		5:[fuel<0.5] yes=11,no=12,missing=11,gain=8.60272598,cover=11352.3848
			11:leaf=6.50592556e-05,cover=3231.86499
			12:leaf=-0.00509423018,cover=8120.52002
		6:[agec<3.5] yes=13,no=14,missing=13,gain=8.47175026,cover=20035.0664
			13:leaf=-0.00509423018,cover=4658.27832
			14:leaf=-0.000552012702,cover=15376.7891
booster[67]:
0:[ageph<30.5] yes=1,no=2,missing=1,gain=15.1987534,cover=44384.7578
	1:[power<62.5] yes=3,no=4,missing=3,gain=6.35532427,cover=9069.13086
		3:[sex<0.5] yes=7,no=8,missing=7,gain=4.71961784,cover=6639.07568
			7:leaf=-0.00539317494,cover=2548.39014
			8:leaf=8.86111739e-05,cover=4090.68555
		4:[agec<4.5] yes=9,no=10,missing=9,gain=6.61547279,cover=2430.05493
			9:leaf=-0.0028563966,cover=897.455994
			10:leaf=0.00795083214,cover=1532.599
	2:[agec<1.5] yes=5,no=6,missing=5,gain=14.0048676,cover=35315.6289
		5:[power<35] yes=11,no=12,missing=11,gain=3.4729569,cover=1637.27246
			11:leaf=-0.0289425906,cover=30.3603268
			12:leaf=0.00466636848,cover=1606.91211
		6:[bm<0.5] yes=13,no=14,missing=13,gain=10.2618256,cover=33678.3555
			13:leaf=-0.00778033072,cover=12058.9668
			14:leaf=-0.00413901173,cover=21619.3887
booster[68]:
0:[ageph<57.5] yes=1,no=2,missing=1,gain=14.7537689,cover=44204.9805
	1:[power<33.5] yes=3,no=4,missing=3,gain=10.8202095,cover=34968.1875
		3:[agec<16.5] yes=7,no=8,missing=7,gain=2.52075768,cover=2318.45801
			7:leaf=-0.0089086974,cover=2238.26465
			8:leaf=-0.0268776119,cover=80.1933289
		4:[bm<2.5] yes=9,no=10,missing=9,gain=11.795742,cover=32649.7285
			9:leaf=-0.00458287355,cover=14624.4033
			10:leaf=-0.000760619936,cover=18025.3262
	2:[fuel<0.5] yes=5,no=6,missing=5,gain=4.99239731,cover=9236.79297
		5:[bm<18.5] yes=11,no=12,missing=11,gain=2.83110952,cover=2052.69043
			11:leaf=-0.00329539552,cover=2046.95605
			12:leaf=0.061660178,cover=5.73434448
		6:[ageph<77.5] yes=13,no=14,missing=13,gain=4.20996475,cover=7184.10254
			13:leaf=-0.00939062424,cover=6610.95703
			14:leaf=-0.000455549074,cover=573.145264
booster[69]:
0:[agec<1.5] yes=1,no=2,missing=1,gain=13.9393959,cover=44034.0039
	1:[coverage<1.5] yes=3,no=4,missing=3,gain=3.68250751,cover=2061.7312
		3:[power<52.5] yes=7,no=8,missing=7,gain=4.59927702,cover=1487.33252
			7:leaf=0.0146772014,cover=506.488739
			8:leaf=0.00294623314,cover=980.84375
		4:[power<82.5] yes=9,no=10,missing=9,gain=2.26564264,cover=574.398804
			9:leaf=-0.00435472885,cover=527.645691
			10:leaf=0.0183927175,cover=46.7531052
	2:[ageph<35.5] yes=5,no=6,missing=5,gain=15.0502167,cover=41972.2734
		5:[power<66.5] yes=11,no=12,missing=11,gain=9.25237846,cover=13625.3145
			11:leaf=-0.00251309504,cover=11413.6719
			12:leaf=0.00455250172,cover=2211.64307
		6:[bm<0.5] yes=13,no=14,missing=13,gain=8.13328552,cover=28346.959
			13:leaf=-0.00753715402,cover=11001.7197
			14:leaf=-0.00406077411,cover=17345.2402
booster[70]:
0:[ageph<57.5] yes=1,no=2,missing=1,gain=13.028141,cover=43871.5078
	1:[power<33.5] yes=3,no=4,missing=3,gain=9.90302086,cover=34751.1055
		3:[agec<16.5] yes=7,no=8,missing=7,gain=2.39922142,cover=2287.97339
			7:leaf=-0.00839133095,cover=2210.19092
			8:leaf=-0.0261804815,cover=77.7824631
		4:[bm<1.5] yes=9,no=10,missing=9,gain=10.1501493,cover=32463.1348
			9:leaf=-0.00441479962,cover=12647.1543
			10:leaf=-0.000788840582,cover=19815.9805
	2:[agec<14.5] yes=5,no=6,missing=5,gain=4.98347855,cover=9120.39941
		5:[ageph<81.5] yes=11,no=12,missing=11,gain=4.05811691,cover=8537.45313
			11:leaf=-0.00663408032,cover=8323.3291
			12:leaf=0.00728367362,cover=214.12442
		6:[power<31.5] yes=13,no=14,missing=13,gain=1.63224792,cover=582.945557
			13:leaf=-0.0356561802,cover=38.2547379
			14:leaf=-0.0143827675,cover=544.690857
booster[71]:
0:[agec<1.5] yes=1,no=2,missing=1,gain=12.6387215,cover=43717.1055
	1:[coverage<1.5] yes=3,no=4,missing=3,gain=3.29955435,cover=2063.87598
		3:[power<52.5] yes=7,no=8,missing=7,gain=4.05881977,cover=1492.86243
			7:leaf=0.0139433583,cover=512.344177
			8:leaf=0.00296367938,cover=980.51825
		4:[power<82.5] yes=9,no=10,missing=9,gain=2.03088522,cover=571.013672
			9:leaf=-0.00400114572,cover=523.551697
			10:leaf=0.0173972808,cover=47.461998
	2:[ageph<35.5] yes=5,no=6,missing=5,gain=13.0377579,cover=41653.2266
		5:[power<66.5] yes=11,no=12,missing=11,gain=8.30268192,cover=13579.9229
			11:leaf=-0.00229716883,cover=11361.6309
			12:leaf=0.00439007068,cover=2218.29248
		6:[sex<0.5] yes=13,no=14,missing=13,gain=7.96172333,cover=28073.3047
			13:leaf=-0.00203500688,cover=6923.09229
			14:leaf=-0.00594237493,cover=21150.2129
booster[72]:
0:[fuel<0.5] yes=1,no=2,missing=1,gain=11.60466,cover=43570.2578
	1:[power<54.5] yes=3,no=4,missing=3,gain=8.19505501,cover=14418.0566
		3:[agec<1.5] yes=7,no=8,missing=7,gain=6.70730543,cover=8909.96777
			7:leaf=0.0145582622,cover=348.591705
			8:leaf=0.000426828308,cover=8561.37598
		4:[ageph<26.5] yes=9,no=10,missing=9,gain=4.46717548,cover=5508.08936
			9:leaf=0.00570167834,cover=442.453125
			10:leaf=-0.00476688193,cover=5065.63623
	2:[power<58.5] yes=5,no=6,missing=5,gain=19.8547935,cover=29152.2012
		5:[bm<9.5] yes=11,no=12,missing=11,gain=5.91256714,cover=17658.6973
			11:leaf=-0.00740776584,cover=13966.7871
			12:leaf=-0.00290688849,cover=3691.91113
		6:[bm<1.5] yes=13,no=14,missing=13,gain=10.5743942,cover=11493.502
			13:leaf=-0.00437491247,cover=5353.02588
			14:leaf=0.00170528539,cover=6140.47607
booster[73]:
0:[agec<1.5] yes=1,no=2,missing=1,gain=11.1223412,cover=43430.7813
	1:[coverage<1.5] yes=3,no=4,missing=3,gain=2.94701576,cover=2070.84839
		3:[agec<0.5] yes=7,no=8,missing=7,gain=3.88267279,cover=1501.70483
			7:leaf=0.0367365889,cover=40.0863304
			8:leaf=0.00555043621,cover=1461.61853
		4:[power<82.5] yes=9,no=10,missing=9,gain=1.8283236,cover=569.143494
			9:leaf=-0.0037732143,cover=520.946045
			10:leaf=0.0163948573,cover=48.1974564
	2:[coverage<1.5] yes=5,no=6,missing=5,gain=11.640976,cover=41359.9297
		5:[bm<15.5] yes=11,no=12,missing=11,gain=5.90679169,cover=16225.2324
			11:leaf=-0.0056582815,cover=16129.583
			12:leaf=0.0191436876,cover=95.6488953
		6:[bm<5.5] yes=13,no=14,missing=13,gain=11.7420988,cover=25134.6992
			13:leaf=-0.00383946672,cover=15081.1436
			14:leaf=0.000572396384,cover=10053.5557
booster[74]:
0:[ageph<57.5] yes=1,no=2,missing=1,gain=10.8966103,cover=43298.0547
	1:[power<33.5] yes=3,no=4,missing=3,gain=8.79694366,cover=34358.4297
		3:[agec<16.5] yes=7,no=8,missing=7,gain=2.30260849,cover=2241.66724
			7:leaf=-0.00756376749,cover=2166.71997
			8:leaf=-0.0253040195,cover=74.9472656
		4:[bm<9.5] yes=9,no=10,missing=9,gain=8.39473629,cover=32116.7617
			9:leaf=-0.00252889935,cover=25300.4863
			10:leaf=0.00142487441,cover=6816.27588
	2:[agec<14.5] yes=5,no=6,missing=5,gain=4.67877579,cover=8939.625
		5:[sex<0.5] yes=11,no=12,missing=11,gain=3.86362457,cover=8373.63672
			11:leaf=-0.000811120321,cover=1486.27759
			12:leaf=-0.00643348182,cover=6887.35938
		6:[power<31.5] yes=13,no=14,missing=13,gain=1.59959888,cover=565.987732
			13:leaf=-0.0349404775,cover=36.345871
			14:leaf=-0.0133823482,cover=529.641846
booster[75]:
0:[fuel<0.5] yes=1,no=2,missing=1,gain=10.4001541,cover=43172.0117
	1:[power<54.5] yes=3,no=4,missing=3,gain=7.40140867,cover=14326.9492
		3:[agec<1.5] yes=7,no=8,missing=7,gain=5.62031937,cover=8871.7959
			7:leaf=0.0135214403,cover=354.328735
			8:leaf=0.000684992585,cover=8517.46777
		4:[ageph<26.5] yes=9,no=10,missing=9,gain=3.9185009,cover=5455.15283
			9:leaf=0.00551419519,cover=443.960052
			10:leaf=-0.00427925633,cover=5011.19238
	2:[power<58.5] yes=5,no=6,missing=5,gain=18.0979347,cover=28845.0625
		5:[bm<9.5] yes=11,no=12,missing=11,gain=4.75713348,cover=17432.2617
			11:leaf=-0.00675999746,cover=13755.873
			12:leaf=-0.00270954682,cover=3676.38867
		6:[bm<1.5] yes=13,no=14,missing=13,gain=9.09427166,cover=11412.7998
			13:leaf=-0.00382097857,cover=5288.32422
			14:leaf=0.00183945359,cover=6124.47607
booster[76]:
0:[agec<1.5] yes=1,no=2,missing=1,gain=9.77121162,cover=43052.2109
	1:[coverage<1.5] yes=3,no=4,missing=3,gain=2.63023186,cover=2072.50757
		3:[agec<0.5] yes=7,no=8,missing=7,gain=3.33084345,cover=1506.59888
			7:leaf=0.0338289402,cover=41.5172615
			8:leaf=0.00542002777,cover=1465.08154
		4:[power<82.5] yes=9,no=10,missing=9,gain=1.6494596,cover=565.908691
			9:leaf=-0.00343531067,cover=517.130493
			10:leaf=0.0156242093,cover=48.7782211
	2:[coverage<1.5] yes=5,no=6,missing=5,gain=10.7015457,cover=40979.7031
		5:[bm<15.5] yes=11,no=12,missing=11,gain=5.18774796,cover=16042.6875
			11:leaf=-0.00514960336,cover=15945.2314
			12:leaf=0.0178813022,cover=97.4553604
		6:[agec<16.5] yes=13,no=14,missing=13,gain=10.5920248,cover=24937.0176
			13:leaf=-0.00135310239,cover=24260.2422
			14:leaf=-0.0140277473,cover=676.775146
booster[77]:
0:[ageph<49.5] yes=1,no=2,missing=1,gain=9.56461716,cover=42938.2227
	1:[power<44.5] yes=3,no=4,missing=3,gain=7.4607687,cover=28102.5684
		3:[fuel<0.5] yes=7,no=8,missing=7,gain=7.72393036,cover=9807.11035
			7:leaf=0.000453870976,cover=3103.01538
			8:leaf=-0.00558015937,cover=6704.09473
		4:[agec<5.5] yes=9,no=10,missing=9,gain=9.15861607,cover=18295.459
			9:leaf=-0.00288929488,cover=7658.94238
			10:leaf=0.00164570787,cover=10636.5156
	2:[power<140.5] yes=5,no=6,missing=5,gain=6.19506454,cover=14835.6543
		5:[agec<1.5] yes=11,no=12,missing=11,gain=5.58295059,cover=14777.9502
			11:leaf=0.00408879248,cover=686.469788
			12:leaf=-0.00514190365,cover=14091.4805
		6:[agec<5.5] yes=13,no=14,missing=13,gain=4.92944908,cover=57.704567
			13:leaf=-0.00139889342,cover=29.0387363
			14:leaf=0.0565127321,cover=28.6658306
booster[78]:
0:[fuel<0.5] yes=1,no=2,missing=1,gain=9.09699821,cover=42829.9141
	1:[agec<9.5] yes=3,no=4,missing=3,gain=6.70962381,cover=14258.6475
		3:[agec<1.5] yes=7,no=8,missing=7,gain=4.78872967,cover=10855.4395
			7:leaf=0.00535985874,cover=914.142334
			8:leaf=-0.00219971384,cover=9941.29688
		4:[bm<1.5] yes=9,no=10,missing=9,gain=7.40821791,cover=3403.20752
			9:leaf=-0.00265107374,cover=1236.03052
			10:leaf=0.00704793865,cover=2167.177
	2:[power<67.5] yes=5,no=6,missing=5,gain=15.9659767,cover=28571.2676
		5:[bm<9.5] yes=11,no=12,missing=11,gain=6.81174088,cover=21931.5508
			11:leaf=-0.00563170668,cover=17471.2949
			12:leaf=-0.0012529419,cover=4460.25439
		6:[power<171.5] yes=13,no=14,missing=13,gain=6.11447525,cover=6639.71777
			13:leaf=0.000666284468,cover=6615.01367
			14:leaf=0.049534101,cover=24.704113
booster[79]:
0:[ageph<57.5] yes=1,no=2,missing=1,gain=8.70399284,cover=42727.0039
	1:[power<66.5] yes=3,no=4,missing=3,gain=7.33562946,cover=33972.6211
		3:[fuel<0.5] yes=7,no=8,missing=7,gain=8.9653759,cover=27322.1836
			7:leaf=-8.87893475e-05,cover=10986.543
			8:leaf=-0.00378314755,cover=16335.6406
		4:[agec<4.5] yes=9,no=10,missing=9,gain=8.74695301,cover=6650.43848
			9:leaf=-0.0035114591,cover=2342.58667
			10:leaf=0.00407960126,cover=4307.85205
	2:[agec<14.5] yes=5,no=6,missing=5,gain=4.19756699,cover=8754.37891
		5:[ageph<81.5] yes=11,no=12,missing=11,gain=3.94144058,cover=8207.84375
			11:leaf=-0.00489603402,cover=8000.11035
			12:leaf=0.009027116,cover=207.733475
		6:[power<31.5] yes=13,no=14,missing=13,gain=1.56752682,cover=546.535522
			13:leaf=-0.0340751745,cover=34.2721558
			14:leaf=-0.0121540809,cover=512.263367
booster[80]:
0:[agec<17.5] yes=1,no=2,missing=1,gain=8.53078842,cover=42629.2148
	1:[ageph<29.5] yes=3,no=4,missing=3,gain=8.0106163,cover=42161.7813
		3:[sex<0.5] yes=7,no=8,missing=7,gain=5.23011732,cover=7742.66455
			7:leaf=-0.00284327008,cover=2548.375
			8:leaf=0.00268689892,cover=5194.28955
		4:[agec<1.5] yes=9,no=10,missing=9,gain=7.97841644,cover=34419.1172
			9:leaf=0.00399667583,cover=1694.07617
			10:leaf=-0.0030397044,cover=32725.043
	2:[power<135.5] yes=5,no=6,missing=5,gain=3.33819485,cover=467.433441
		5:[ageph<22.5] yes=11,no=12,missing=11,gain=3.29667568,cover=460.994995
			11:leaf=0.0280579906,cover=15.0797024
			12:leaf=-0.0182215702,cover=445.915314
		6:[bm<0.5] yes=13,no=14,missing=13,gain=2.76413894,cover=6.43844414
			13:leaf=-0.0343063101,cover=2.23461533
			14:leaf=0.0700000003,cover=4.20382881
booster[81]:
0:[power<38.5] yes=1,no=2,missing=1,gain=8.25296974,cover=42536.0273
	1:[agec<16.5] yes=3,no=4,missing=3,gain=3.5229187,cover=4660.33984
		3:[ageph<20.5] yes=7,no=8,missing=7,gain=2.00355434,cover=4498.41113
			7:leaf=0.0145921325,cover=48.0214157
			8:leaf=-0.00575096859,cover=4450.38965
		4:[power<31.5] yes=9,no=10,missing=9,gain=2.45608377,cover=161.929047
			9:leaf=-0.0368983187,cover=57.7496948
			10:leaf=-0.0111561175,cover=104.179344
	2:[bm<1.5] yes=5,no=6,missing=5,gain=8.7298317,cover=37875.6875
		5:[sex<0.5] yes=11,no=12,missing=11,gain=5.85773468,cover=16666.7363
			11:leaf=-0.00177932717,cover=3333.83569
			12:leaf=-0.00448422367,cover=13332.9004
		6:[agec<6.5] yes=13,no=14,missing=13,gain=6.94766712,cover=21208.9492
			13:leaf=-0.00177932717,cover=9549.62109
			14:leaf=0.00141633104,cover=11659.3281
booster[82]:
0:[agec<1.5] yes=1,no=2,missing=1,gain=7.70158768,cover=42441.9336
	1:[power<36.5] yes=3,no=4,missing=3,gain=2.50683689,cover=2075.7041
		3:[ageph<23.5] yes=7,no=8,missing=7,gain=3.21178818,cover=41.3290329
			7:leaf=0.0686846972,cover=2.79961348
			8:leaf=-0.0281641968,cover=38.5294228
		4:[power<42.5] yes=9,no=10,missing=9,gain=2.34881735,cover=2034.375
			9:leaf=0.0180084463,cover=119.437752
			10:leaf=0.00360503863,cover=1914.93726
	2:[agec<3.5] yes=5,no=6,missing=5,gain=9.41415024,cover=40366.2266
		5:[power<171.5] yes=11,no=12,missing=11,gain=2.91663933,cover=6707.29004
			11:leaf=-0.0057776412,cover=6700.08691
			12:leaf=0.0539209507,cover=7.20296192
		6:[fuel<0.5] yes=13,no=14,missing=13,gain=11.3680267,cover=33658.9375
			13:leaf=0.0011397464,cover=10429.4648
			14:leaf=-0.00283427024,cover=23229.4727
booster[83]:
0:[agec<17.5] yes=1,no=2,missing=1,gain=7.6923418,cover=42358.0938
	1:[ageph<26.5] yes=3,no=4,missing=3,gain=7.14893818,cover=41901.75
		3:[sex<0.5] yes=7,no=8,missing=7,gain=3.98231435,cover=4464.47021
			7:leaf=-0.00219928077,cover=1481.31714
			8:leaf=0.00414221268,cover=2983.15308
		4:[power<39.5] yes=9,no=10,missing=9,gain=6.44094849,cover=37437.2813
			9:leaf=-0.00572217861,cover=4547.61768
			10:leaf=-0.00170724129,cover=32889.6641
	2:[power<135.5] yes=5,no=6,missing=5,gain=3.08049393,cover=456.343475
		5:[ageph<22.5] yes=11,no=12,missing=11,gain=3.05723953,cover=449.700409
			11:leaf=0.0268633161,cover=15.3307419
			12:leaf=-0.0173878875,cover=434.369659
		6:[bm<0.5] yes=13,no=14,missing=13,gain=2.54548359,cover=6.64306641
			13:leaf=-0.0338624157,cover=2.14371824
			14:leaf=0.0700000003,cover=4.49934816
booster[84]:
0:[ageph<57.5] yes=1,no=2,missing=1,gain=7.3019886,cover=42278.3555
	1:[power<66.5] yes=3,no=4,missing=3,gain=6.68031883,cover=33662.5664
		3:[fuel<0.5] yes=7,no=8,missing=7,gain=7.2139473,cover=27052.8301
			7:leaf=0.000156831273,cover=10932.3672
			8:leaf=-0.00317083485,cover=16120.4629
		4:[agec<4.5] yes=9,no=10,missing=9,gain=7.81618643,cover=6609.73633
			9:leaf=-0.00296292268,cover=2315.0564
			10:leaf=0.00424438296,cover=4294.67969
	2:[fuel<0.5] yes=5,no=6,missing=5,gain=3.67328644,cover=8615.78906
		5:[agec<4.5] yes=11,no=12,missing=11,gain=2.62743926,cover=1947.56274
			11:leaf=-0.00569776306,cover=659.808716
			12:leaf=0.00205782522,cover=1287.75403
		6:[ageph<77.5] yes=13,no=14,missing=13,gain=4.07840157,cover=6668.22607
			13:leaf=-0.00623994088,cover=6131.1582
			14:leaf=0.00284351921,cover=537.067749
booster[85]:
0:[agec<18.5] yes=1,no=2,missing=1,gain=7.15093517,cover=42202.75
	1:[bm<10.5] yes=3,no=4,missing=3,gain=6.95571804,cover=41886.9219
		3:[power<40.5] yes=7,no=8,missing=7,gain=5.52969551,cover=36566.2734
			7:leaf=-0.00445675291,cover=7758.64307
			8:leaf=-0.00144902989,cover=28807.6309
		4:[agec<7.5] yes=9,no=10,missing=9,gain=4.2780304,cover=5320.64941
			9:leaf=-0.00015254505,cover=2246.00586
			10:leaf=0.00436257524,cover=3074.64331
	2:[ageph<24.5] yes=5,no=6,missing=5,gain=4.17068005,cover=315.826538
		5:[agec<25] yes=11,no=12,missing=11,gain=0.857696295,cover=20.917942
			11:leaf=0.0365657471,cover=15.8126488
			12:leaf=-0.008766382,cover=5.1052928
		6:[power<174] yes=13,no=14,missing=13,gain=2.59112263,cover=294.9086
			13:leaf=-0.0205955189,cover=293.176636
			14:leaf=0.0700000003,cover=1.73195171
booster[86]:
0:[agec<1.5] yes=1,no=2,missing=1,gain=7.01259422,cover=42134.3281
	1:[coverage<1.5] yes=3,no=4,missing=3,gain=2.33112001,cover=2072.62939
		3:[sex<0.5] yes=7,no=8,missing=7,gain=3.14499474,cover=1510.3938
			7:leaf=0.0139391618,cover=380.29776
			8:leaf=0.00343126431,cover=1130.09607
		4:[power<82.5] yes=9,no=10,missing=9,gain=1.48045945,cover=562.235474
			9:leaf=-0.00305593014,cover=512.912476
			10:leaf=0.0149175329,cover=49.3229599
	2:[coverage<1.5] yes=5,no=6,missing=5,gain=9.25610733,cover=40061.6992
		5:[bm<15.5] yes=11,no=12,missing=11,gain=4.50134659,cover=15628.4131
			11:leaf=-0.00396045251,cover=15530.2803
			12:leaf=0.0174199212,cover=98.1325607
		6:[power<30.5] yes=13,no=14,missing=13,gain=8.89524651,cover=24433.2852
			13:leaf=-0.0127355801,cover=598.888611
			14:leaf=-0.000406165462,cover=23834.3965
booster[87]:
0:[bm<0.5] yes=1,no=2,missing=1,gain=6.7146225,cover=42065.8086
	1:[ageph<46.5] yes=3,no=4,missing=3,gain=3.42422295,cover=12135.4004
		3:[agec<10.5] yes=7,no=8,missing=7,gain=1.11008215,cover=4872.56934
			7:leaf=-0.00214267615,cover=4046.90698
			8:leaf=-0.00580792269,cover=825.662659
		4:[power<40.5] yes=9,no=10,missing=9,gain=3.25774765,cover=7262.83057
			9:leaf=-0.00922767539,cover=1437.24963
			10:leaf=-0.0039113462,cover=5825.58105
	2:[power<44.5] yes=5,no=6,missing=5,gain=5.27317333,cover=29930.4082
		5:[ageph<20.5] yes=11,no=12,missing=11,gain=4.01222849,cover=10676.0684
			11:leaf=0.0152039519,cover=132.353806
			12:leaf=-0.00214267615,cover=10543.7148
		6:[agec<3.5] yes=13,no=14,missing=13,gain=7.29971218,cover=19254.3398
			13:leaf=-0.00214267615,cover=4460.59277
			14:leaf=0.001383211,cover=14793.7471
booster[88]:
0:[agec<16.5] yes=1,no=2,missing=1,gain=6.66115093,cover=42006.8125
	1:[agec<1.5] yes=3,no=4,missing=3,gain=6.09941435,cover=41323.9492
		3:[power<36.5] yes=7,no=8,missing=7,gain=2.24327397,cover=2075.76929
			7:leaf=-0.0192019586,cover=40.0308342
			8:leaf=0.00442286441,cover=2035.73853
		4:[coverage<1.5] yes=9,no=10,missing=9,gain=9.86552143,cover=39248.1797
			9:leaf=-0.00356565905,cover=15494.8818
			10:leaf=-0.000322208303,cover=23753.2969
	2:[power<31.5] yes=5,no=6,missing=5,gain=3.56322479,cover=682.863892
		5:[ageph<22.5] yes=11,no=12,missing=11,gain=1.5664854,cover=53.3578682
			11:leaf=0.0202794727,cover=3.99954987
			12:leaf=-0.0407293476,cover=49.3583183
		6:[ageph<24.5] yes=13,no=14,missing=13,gain=2.70657635,cover=629.506042
			13:leaf=0.0180745367,cover=33.6899757
			14:leaf=-0.0107023753,cover=595.81604
booster[89]:
0:[ageph<25.5] yes=1,no=2,missing=1,gain=6.33332825,cover=41944.6563
	1:[power<66.5] yes=3,no=4,missing=3,gain=3.734864,cover=3402.00928
		3:[ageph<18.5] yes=7,no=8,missing=7,gain=3.19277954,cover=2921.521
			7:leaf=0.0700000003,cover=2.71827221
			8:leaf=0.00125232607,cover=2918.80273
		4:[power<80.5] yes=9,no=10,missing=9,gain=3.85245895,cover=480.488403
			9:leaf=0.0213368908,cover=202.529449
			10:leaf=0.00321540399,cover=277.958984
	2:[agec<18.5] yes=5,no=6,missing=5,gain=7.70963383,cover=38542.6484
		5:[agec<1.5] yes=11,no=12,missing=11,gain=5.14231777,cover=38264.3359
			11:leaf=0.00340213254,cover=1907.18689
			12:leaf=-0.00192370848,cover=36357.1484
		6:[power<174] yes=13,no=14,missing=13,gain=2.37944412,cover=278.313293
			13:leaf=-0.0192065649,cover=276.475006
			14:leaf=0.0700000003,cover=1.83829474
booster[90]:
0:[ageph<46.5] yes=1,no=2,missing=1,gain=6.09764767,cover=41885.2734
	1:[fleet<0.5] yes=3,no=4,missing=3,gain=6.52752542,cover=24650.3242
		3:[power<66.5] yes=7,no=8,missing=7,gain=6.1473031,cover=24059.498
			7:leaf=-0.000845908478,cover=19581.0176
			8:leaf=0.00326049072,cover=4478.47949
		4:[ageph<37.5] yes=9,no=10,missing=9,gain=1.67512131,cover=590.827271
			9:leaf=-0.0155947572,cover=320.445862
			10:leaf=-0.00488885771,cover=270.381439
	2:[bm<0.5] yes=5,no=6,missing=5,gain=4.00299644,cover=17234.9492
		5:[power<40.5] yes=11,no=12,missing=11,gain=2.97122002,cover=7202.00781
			11:leaf=-0.00868793577,cover=1418.30237
			12:leaf=-0.0035801807,cover=5783.70508
		6:[ageph<82.5] yes=13,no=14,missing=13,gain=3.60421109,cover=10032.9404
			13:leaf=-0.00169106794,cover=9929.68262
			14:leaf=0.0169999246,cover=103.257721
booster[91]:
0:[fuel<0.5] yes=1,no=2,missing=1,gain=5.88302469,cover=41829.1211
	1:[power<54.5] yes=3,no=4,missing=3,gain=6.46908092,cover=14049.2275
		3:[agec<1.5] yes=7,no=8,missing=7,gain=3.45396781,cover=8723.52441
			7:leaf=0.0115629062,cover=365.696045
			8:leaf=0.00164646411,cover=8357.8291
		4:[agec<3.5] yes=9,no=10,missing=9,gain=2.92264056,cover=5325.70313
			9:leaf=-0.00515547534,cover=2195.4707
			10:leaf=-0.000396880554,cover=3130.23218
	2:[power<58.5] yes=5,no=6,missing=5,gain=11.9557352,cover=27779.8926
		5:[ageph<81.5] yes=11,no=12,missing=11,gain=3.62324524,cover=16639.457
			11:leaf=-0.00397767639,cover=16455.5586
			12:leaf=0.0101021063,cover=183.898621
		6:[sex<0.5] yes=13,no=14,missing=13,gain=7.3539443,cover=11140.4346
			13:leaf=0.00553497532,cover=2237.48193
			14:leaf=-0.000876861915,cover=8902.95313
booster[92]:
0:[agec<16.5] yes=1,no=2,missing=1,gain=5.71100807,cover=41775.7695
	1:[bm<10.5] yes=3,no=4,missing=3,gain=5.66580391,cover=41108.3359
		3:[fuel<0.5] yes=7,no=8,missing=7,gain=4.57118416,cover=35864.3359
			7:leaf=4.617788e-05,cover=12276.502
			8:leaf=-0.00233318447,cover=23587.834
		4:[agec<7.5] yes=9,no=10,missing=9,gain=4.104352,cover=5244.00195
			9:leaf=0.000240682901,cover=2234.57129
			10:leaf=0.00460269302,cover=3009.43066
	2:[power<31.5] yes=5,no=6,missing=5,gain=3.43112946,cover=667.433105
		5:[ageph<22.5] yes=11,no=12,missing=11,gain=1.50378323,cover=50.6998062
			11:leaf=0.0193493422,cover=4.06693649
			12:leaf=-0.040218439,cover=46.6328697
		6:[agec<27.5] yes=13,no=14,missing=13,gain=2.67921638,cover=616.733276
			13:leaf=-0.0066350475,cover=581.232239
			14:leaf=-0.034599822,cover=35.5010452
booster[93]:
0:[ageph<59.5] yes=1,no=2,missing=1,gain=5.5215621,cover=41728.9805
	1:[fleet<0.5] yes=3,no=4,missing=3,gain=5.18224335,cover=34356.7266
		3:[power<171.5] yes=7,no=8,missing=7,gain=5.56185722,cover=33445.2852
			7:leaf=-0.000462537166,cover=33423.4648
			8:leaf=0.0489227809,cover=21.8203354
		4:[ageph<37.5] yes=9,no=10,missing=9,gain=2.31736326,cover=911.44281
			9:leaf=-0.0149956346,cover=314.889893
			10:leaf=-0.00439114263,cover=596.552917
	2:[bm<18.5] yes=5,no=6,missing=5,gain=3.88646317,cover=7372.25195
		5:[agec<14.5] yes=11,no=12,missing=11,gain=3.34540462,cover=7363.68506
			11:leaf=-0.00317441719,cover=6897.04883
			12:leaf=-0.0119162779,cover=466.636627
		6:[agec<7.5] yes=13,no=14,missing=13,gain=1.49015379,cover=8.56687832
			13:leaf=0.0700000003,cover=5.5399971
			14:leaf=0.0281647574,cover=3.02688098
booster[94]:
0:[ageph<25.5] yes=1,no=2,missing=1,gain=5.40284491,cover=41680.418
	1:[power<66.5] yes=3,no=4,missing=3,gain=3.13330436,cover=3402.76001
		3:[sex<0.5] yes=7,no=8,missing=7,gain=3.00894618,cover=2916.21875
			7:leaf=-0.00278573926,cover=1058.24268
			8:leaf=0.00389227085,cover=1857.97607
		4:[power<80.5] yes=9,no=10,missing=9,gain=3.34568405,cover=486.541443
			9:leaf=0.0197249111,cover=207.258026
			10:leaf=0.00296555483,cover=279.283417
	2:[agec<18.5] yes=5,no=6,missing=5,gain=6.63113308,cover=38277.6563
		5:[power<38.5] yes=11,no=12,missing=11,gain=4.58539152,cover=38009.9141
			11:leaf=-0.00456199143,cover=3949.40649
			12:leaf=-0.000962810765,cover=34060.5078
		6:[power<174] yes=13,no=14,missing=13,gain=2.04575872,cover=267.742462
			13:leaf=-0.0179753341,cover=265.692108
			14:leaf=0.0649699569,cover=2.0503633
booster[95]:
0:[agec<1.5] yes=1,no=2,missing=1,gain=5.19365311,cover=41634.3281
	1:[coverage<1.5] yes=3,no=4,missing=3,gain=2.08380723,cover=2081.39941
		3:[power<52.5] yes=7,no=8,missing=7,gain=2.86900663,cover=1519.91858
			7:leaf=0.0116532035,cover=531.518921
			8:leaf=0.00254449528,cover=988.399719
		4:[power<82.5] yes=9,no=10,missing=9,gain=1.30708301,cover=561.480835
			9:leaf=-0.00291054929,cover=511.314301
			10:leaf=0.0138528422,cover=50.1665611
	2:[agec<3.5] yes=5,no=6,missing=5,gain=7.9793601,cover=39552.9297
		5:[power<171.5] yes=11,no=12,missing=11,gain=2.41709328,cover=6528.8999
			11:leaf=-0.00457426067,cover=6521.22314
			12:leaf=0.0482620262,cover=7.67701912
		6:[fuel<0.5] yes=13,no=14,missing=13,gain=7.83178043,cover=33024.0313
			13:leaf=0.00160257798,cover=10335.29
			14:leaf=-0.00171837432,cover=22688.7402
booster[96]:
0:[power<75.5] yes=1,no=2,missing=1,gain=5.11220169,cover=41590.5313
	1:[fuel<0.5] yes=3,no=4,missing=3,gain=7.99248838,cover=35900.4336
		3:[power<58.5] yes=7,no=8,missing=7,gain=5.73546696,cover=13200.9756
			7:leaf=0.00164444826,cover=10192.3584
			8:leaf=-0.00332384254,cover=3008.61694
		4:[bm<0.5] yes=9,no=10,missing=9,gain=4.84384918,cover=22699.459
			9:leaf=-0.0048888973,cover=6497.81738
			10:leaf=-0.00165711588,cover=16201.6406
	2:[agec<4.5] yes=5,no=6,missing=5,gain=3.85331726,cover=5690.09814
		5:[power<171.5] yes=11,no=12,missing=11,gain=2.90763211,cover=1932.60815
			11:leaf=-0.00216711732,cover=1920.39282
			12:leaf=0.0449029841,cover=12.2152977
		6:[power<140.5] yes=13,no=14,missing=13,gain=4.23488665,cover=3757.48999
			13:leaf=0.00307858479,cover=3653.91479
			14:leaf=0.0234912876,cover=103.575226
booster[97]:
0:[ageph<30.5] yes=1,no=2,missing=1,gain=4.90300274,cover=41548.9375
	1:[sex<0.5] yes=3,no=4,missing=3,gain=3.55862069,cover=8791.16504
		3:[power<68.5] yes=7,no=8,missing=7,gain=3.1692121,cover=2863.92725
			7:leaf=-0.00272645522,cover=2637.91284
			8:leaf=0.00958728418,cover=226.014496
		4:[agec<9.5] yes=9,no=10,missing=9,gain=7.90968752,cover=5927.2373
			9:leaf=0.000156721842,cover=4157.35791
			10:leaf=0.00813742913,cover=1769.87915
	2:[sex<0.5] yes=5,no=6,missing=5,gain=7.01607418,cover=32757.7754
		5:[power<49.5] yes=11,no=12,missing=11,gain=7.96301508,cover=8417.95703
			11:leaf=-0.00196544523,cover=4403.19531
			12:leaf=0.00419169432,cover=4014.76147
		6:[fuel<0.5] yes=13,no=14,missing=13,gain=4.57531643,cover=24339.8184
			13:leaf=-0.000572054472,cover=8900.63086
			14:leaf=-0.0034188279,cover=15439.1875
booster[98]:
0:[power<31.5] yes=1,no=2,missing=1,gain=4.84528923,cover=41509.4805
	1:[bm<14.5] yes=3,no=4,missing=3,gain=6.93142653,cover=730.266968
		3:[agec<16.5] yes=7,no=8,missing=7,gain=2.95596123,cover=721.084839
			7:leaf=-0.00839612726,cover=673.940308
			8:leaf=-0.034087535,cover=47.1445465
		4:[ageph<28.5] yes=9,no=10,missing=9,gain=1.81569529,cover=9.18214035
			9:leaf=0.0299396422,cover=4.39441156
			10:leaf=0.0700000003,cover=4.78772879
	2:[coverage<1.5] yes=5,no=6,missing=5,gain=5.13934422,cover=40779.2148
		5:[agec<1.5] yes=11,no=12,missing=11,gain=9.70522022,cover=16709.5742
			11:leaf=0.00549745327,cover=1522.85388
			12:leaf=-0.00287404819,cover=15186.7207
		6:[power<109.5] yes=13,no=14,missing=13,gain=5.24292326,cover=24069.6387
			13:leaf=-5.32240483e-06,cover=23728.5781
			14:leaf=0.0124640139,cover=341.060333
booster[99]:
0:[agec<18.5] yes=1,no=2,missing=1,gain=4.74813461,cover=41471.707
	1:[bm<13.5] yes=3,no=4,missing=3,gain=4.52812386,cover=41182.7773
		3:[power<75.5] yes=7,no=8,missing=7,gain=4.28744793,cover=40152.7188
			7:leaf=-0.00135506911,cover=34620.7344
			8:leaf=0.00164283742,cover=5531.98438
		4:[power<22.5] yes=9,no=10,missing=9,gain=1.50542688,cover=1030.05896
			9:leaf=0.0700000003,cover=1.65625751
			10:leaf=0.00556733925,cover=1028.40271
	2:[ageph<24.5] yes=5,no=6,missing=5,gain=3.28955555,cover=288.928253
		5:[power<52] yes=11,no=12,missing=11,gain=0.819226384,cover=21.6692276
			11:leaf=0.0336432979,cover=16.4024811
			12:leaf=-0.00981990807,cover=5.26674604
		6:[agec<32.5] yes=13,no=14,missing=13,gain=1.92256308,cover=267.259003
			13:leaf=-0.0142324986,cover=248.806671
			14:leaf=-0.0471056998,cover=18.4523468
booster[100]:
0:[ageph<25.5] yes=1,no=2,missing=1,gain=4.46530724,cover=41435.9258
	1:[ageph<18.5] yes=3,no=4,missing=3,gain=2.85918975,cover=3406.91235
		3:[power<40.5] yes=7,no=8,missing=7,gain=0.14669776,cover=2.9266274
			7:leaf=0.0700000003,cover=1.67537236
			8:leaf=0.016819289,cover=1.25125515
		4:[power<66.5] yes=9,no=10,missing=9,gain=2.66492605,cover=3403.98584
			9:leaf=0.00139108079,cover=2910.8667
			10:leaf=0.00933463965,cover=493.119202
	2:[agec<18.5] yes=5,no=6,missing=5,gain=5.57887411,cover=38029.0156
		5:[bm<15.5] yes=11,no=12,missing=11,gain=3.9515624,cover=37771.75
			11:leaf=-0.00111857092,cover=37505.207
			12:leaf=0.0110779665,cover=266.543549
		6:[agec<32.5] yes=13,no=14,missing=13,gain=1.88516617,cover=257.265106
			13:leaf=-0.0133590074,cover=240.040604
			14:leaf=-0.0469337106,cover=17.2245216
booster[101]:
0:[power<31.5] yes=1,no=2,missing=1,gain=4.36845589,cover=41401.8086
	1:[bm<14.5] yes=3,no=4,missing=3,gain=6.07015514,cover=721.605469
		3:[agec<3.5] yes=7,no=8,missing=7,gain=2.79151487,cover=711.795044
			7:leaf=0.0271313433,cover=19.1805077
			8:leaf=-0.0106604164,cover=692.614563
		4:[ageph<28.5] yes=9,no=10,missing=9,gain=2.00944042,cover=9.81037903
			9:leaf=0.0281670429,cover=4.57543135
			10:leaf=0.0700000003,cover=5.23494768
	2:[bm<0.5] yes=5,no=6,missing=5,gain=4.81635046,cover=40680.2031
		5:[sex<0.5] yes=11,no=12,missing=11,gain=3.03661633,cover=11674.7061
			11:leaf=-0.00115682639,cover=2355.70654
			12:leaf=-0.0034085603,cover=9318.99902
		6:[coverage<1.5] yes=13,no=14,missing=13,gain=4.71192265,cover=29005.498
			13:leaf=-0.00115682639,cover=11194.3984
			14:leaf=0.00107942999,cover=17811.1016
booster[102]:
0:[agec<1.5] yes=1,no=2,missing=1,gain=4.33635807,cover=41367.3633
	1:[power<36.5] yes=3,no=4,missing=3,gain=2.00083613,cover=2085.76514
		3:[ageph<23.5] yes=7,no=8,missing=7,gain=2.95078421,cover=39.0385361
			7:leaf=0.0649311766,cover=2.92407465
			8:leaf=-0.0267656054,cover=36.11446
		4:[power<41.5] yes=9,no=10,missing=9,gain=2.20289564,cover=2046.72668
			9:leaf=0.0193886608,cover=89.5128555
			10:leaf=0.0034253865,cover=1957.21375
	2:[agec<3.5] yes=5,no=6,missing=5,gain=6.91715717,cover=39281.5977
		5:[bm<17.5] yes=11,no=12,missing=11,gain=2.15364361,cover=6452.41943
			11:leaf=-0.00407812931,cover=6430.48486
			12:leaf=0.026631603,cover=21.9342709
		6:[power<44.5] yes=13,no=14,missing=13,gain=6.9287467,cover=32829.1797
			13:leaf=-0.00229267706,cover=12076.2588
			14:leaf=0.000719890406,cover=20752.9199
booster[103]:
0:[fleet<0.5] yes=1,no=2,missing=1,gain=4.27000618,cover=41336.7852
	1:[ageph<57.5] yes=3,no=4,missing=3,gain=4.60989428,cover=40060.6797
		3:[power<66.5] yes=7,no=8,missing=7,gain=4.63515568,cover=32178.6895
			7:leaf=-0.000587858551,cover=25817.877
			8:leaf=0.00242563849,cover=6360.81152
		4:[sex<0.5] yes=9,no=10,missing=9,gain=3.30678606,cover=7881.99072
			9:leaf=0.00168197602,cover=1417.95093
			10:leaf=-0.00364958425,cover=6464.03955
	2:[ageph<37.5] yes=5,no=6,missing=5,gain=2.48879004,cover=1276.10352
		5:[ageph<36.5] yes=11,no=12,missing=11,gain=1.89756393,cover=307.926117
			11:leaf=-0.0117822001,cover=282.809387
			12:leaf=-0.0400991924,cover=25.1167145
		6:[coverage<0.5] yes=13,no=14,missing=13,gain=3.07459974,cover=968.177429
			13:leaf=-0.0131042404,cover=262.981567
			14:leaf=-0.000451700762,cover=705.195862
booster[104]:
0:[agec<27.5] yes=1,no=2,missing=1,gain=4.20547295,cover=41307.8555
	1:[ageph<46.5] yes=3,no=4,missing=3,gain=3.99684358,cover=41269.2695
		3:[fleet<0.5] yes=7,no=8,missing=7,gain=5.00564814,cover=24388.8809
			7:leaf=0.000400996068,cover=23821.6309
			8:leaf=-0.00909586623,cover=567.248169
		4:[power<142.5] yes=9,no=10,missing=9,gain=3.03854799,cover=16880.3887
			9:leaf=-0.001896395,cover=16829.2715
			10:leaf=0.0222881343,cover=51.1171989
	2:[ageph<67.5] yes=5,no=6,missing=5,gain=1.12110615,cover=38.5878181
		5:[ageph<30.5] yes=11,no=12,missing=11,gain=0.564817429,cover=36.2928505
			11:leaf=-0.0131780431,cover=8.58481026
			12:leaf=-0.0444454066,cover=27.7080402
		6:[power<58] yes=13,no=14,missing=13,gain=0.948073983,cover=2.29496694
			13:leaf=-0.0270792674,cover=1.19929814
			14:leaf=0.0694721863,cover=1.09566891
booster[105]:
0:[agec<16.5] yes=1,no=2,missing=1,gain=4.09214973,cover=41280.2734
	1:[coverage<1.5] yes=3,no=4,missing=3,gain=4.06826782,cover=40642.293
		3:[agec<1.5] yes=7,no=8,missing=7,gain=8.38097191,cover=16652.4297
			7:leaf=0.00533471769,cover=1531
			8:leaf=-0.00242738682,cover=15121.4297
		4:[power<109.5] yes=9,no=10,missing=9,gain=4.41324711,cover=23989.8613
			9:leaf=0.000160868309,cover=23661.4629
			10:leaf=0.0118160946,cover=328.398651
	2:[power<31.5] yes=5,no=6,missing=5,gain=3.03175831,cover=637.980286
		5:[ageph<22.5] yes=11,no=12,missing=11,gain=1.4059453,cover=44.9466667
			11:leaf=0.0187618565,cover=4.11044359
			12:leaf=-0.0389104597,cover=40.8362236
		6:[agec<27.5] yes=13,no=14,missing=13,gain=2.24166012,cover=593.03363
			13:leaf=-0.00517404778,cover=562.110046
			14:leaf=-0.0324405879,cover=30.9235935
booster[106]:
0:[power<33.5] yes=1,no=2,missing=1,gain=3.84508491,cover=41254.1406
	1:[ageph<81.5] yes=3,no=4,missing=3,gain=2.22649622,cover=2613.63989
		3:[agec<16.5] yes=7,no=8,missing=7,gain=2.00321054,cover=2579.89136
			7:leaf=-0.00417252257,cover=2506.35693
			8:leaf=-0.0208173897,cover=73.5344467
		4:[bm<0.5] yes=9,no=10,missing=9,gain=3.91704917,cover=33.7483025
			9:leaf=-0.0160169341,cover=15.3386583
			10:leaf=0.0507894047,cover=18.4096432
	2:[ageph<37.5] yes=5,no=6,missing=5,gain=4.72928476,cover=38640.5039
		5:[fleet<0.5] yes=11,no=12,missing=11,gain=5.70878124,cover=14655.3945
			11:leaf=0.00133877154,cover=14369.3613
			12:leaf=-0.0129043376,cover=286.032776
		6:[sex<0.5] yes=13,no=14,missing=13,gain=9.23012352,cover=23985.1094
			13:leaf=0.00237078569,cover=5512.23145
			14:leaf=-0.00229166285,cover=18472.877
booster[107]:
0:[agec<27.5] yes=1,no=2,missing=1,gain=3.65564823,cover=41229.2891
	1:[power<171.5] yes=3,no=4,missing=3,gain=3.68074512,cover=41193.4023
		3:[bm<10.5] yes=7,no=8,missing=7,gain=3.65004778,cover=41164.0156
			7:leaf=-0.000937608245,cover=35832.6758
			8:leaf=0.00186663761,cover=5331.33887
		4:[power<178.5] yes=9,no=10,missing=9,gain=2.13708711,cover=29.3895168
			9:leaf=0.0700000003,cover=2.91714597
			10:leaf=0.0213094428,cover=26.4723721
	2:[ageph<67.5] yes=5,no=6,missing=5,gain=1.10568237,cover=35.8840446
		5:[ageph<30.5] yes=11,no=12,missing=11,gain=0.592362404,cover=33.6251793
			11:leaf=-0.0113824466,cover=8.13516998
			12:leaf=-0.0440089069,cover=25.4900112
		6:[power<58] yes=13,no=14,missing=13,gain=0.87646997,cover=2.25886393
			13:leaf=-0.0262786578,cover=1.12398648
			14:leaf=0.0672842711,cover=1.13487744
booster[108]:
0:[power<31.5] yes=1,no=2,missing=1,gain=3.60992265,cover=41205.3086
	1:[bm<14.5] yes=3,no=4,missing=3,gain=5.43575525,cover=706.81488
		3:[agec<3.5] yes=7,no=8,missing=7,gain=2.53261471,cover=696.558105
			7:leaf=0.0259717386,cover=19.4899254
			8:leaf=-0.0097662909,cover=677.068176
		4:[ageph<28.5] yes=9,no=10,missing=9,gain=2.09511518,cover=10.2567635
			9:leaf=0.0263124797,cover=4.67552519
			10:leaf=0.0700000003,cover=5.58123827
	2:[ageph<26.5] yes=5,no=6,missing=5,gain=3.83216047,cover=40498.4922
		5:[agec<5.5] yes=11,no=12,missing=11,gain=3.52975559,cover=4422.00439
			11:leaf=-0.0014457301,cover=1574.30066
			12:leaf=0.00445368281,cover=2847.70361
		6:[sex<0.5] yes=13,no=14,missing=13,gain=4.67025089,cover=36076.4883
			13:leaf=0.00114291196,cover=9462.30762
			14:leaf=-0.00144357805,cover=26614.1816
booster[109]:
0:[fuel<0.5] yes=1,no=2,missing=1,gain=3.63064766,cover=41182.6328
	1:[power<54.5] yes=3,no=4,missing=3,gain=5.31938696,cover=13936.5479
		3:[agec<9.5] yes=7,no=8,missing=7,gain=3.10699892,cover=8681.91602
			7:leaf=0.00097950804,cover=5805.89258
			8:leaf=0.00499854703,cover=2876.02271
		4:[agec<25] yes=9,no=10,missing=9,gain=2.76815224,cover=5254.63232
			9:leaf=-0.00177685381,cover=5252.56836
			10:leaf=0.0700000003,cover=2.06417036
	2:[power<58.5] yes=5,no=6,missing=5,gain=8.82555199,cover=27246.0859
		5:[ageph<81.5] yes=11,no=12,missing=11,gain=3.65538883,cover=16233.4473
			11:leaf=-0.00283419224,cover=16053.6777
			12:leaf=0.0114671979,cover=179.769363
		6:[sex<0.5] yes=13,no=14,missing=13,gain=5.3001442,cover=11012.6377
			13:leaf=0.00532530434,cover=2246.01782
			14:leaf=-0.000118329073,cover=8766.62012
booster[110]:
0:[agec<16.5] yes=1,no=2,missing=1,gain=3.58624554,cover=41161.1563
	1:[bm<13.5] yes=3,no=4,missing=3,gain=3.6905036,cover=40532.293
		3:[coverage<1.5] yes=7,no=8,missing=7,gain=3.39182711,cover=39507.0195
			7:leaf=-0.00164183474,cover=16244.3848
			8:leaf=0.000241220041,cover=23262.6367
		4:[ageph<24.5] yes=9,no=10,missing=9,gain=1.45159531,cover=1025.27026
			9:leaf=0.0144562069,cover=154.185196
			10:leaf=0.00394823542,cover=871.085022
	2:[power<31.5] yes=5,no=6,missing=5,gain=2.69462919,cover=628.863464
		5:[ageph<22.5] yes=11,no=12,missing=11,gain=1.37282085,cover=41.9147224
			11:leaf=0.0192189775,cover=4.07652664
			12:leaf=-0.0380807891,cover=37.8381958
		6:[agec<27.5] yes=13,no=14,missing=13,gain=1.99340439,cover=586.94873
			13:leaf=-0.00484346133,cover=557.956177
			14:leaf=-0.0313320458,cover=28.9925823
booster[111]:
0:[agec<1.5] yes=1,no=2,missing=1,gain=3.61256337,cover=41140.8867
	1:[power<36.5] yes=3,no=4,missing=3,gain=1.80027533,cover=2090.62305
		3:[ageph<23.5] yes=7,no=8,missing=7,gain=2.68025732,cover=38.090889
			7:leaf=0.0596502982,cover=3.11365271
			8:leaf=-0.0260419697,cover=34.9772339
		4:[power<43.5] yes=9,no=10,missing=9,gain=1.97012115,cover=2052.53223
			9:leaf=0.0137247341,cover=187.530182
			10:leaf=0.00299396343,cover=1865.00195
	2:[agec<3.5] yes=5,no=6,missing=5,gain=5.98899126,cover=39050.2617
		5:[power<105.5] yes=11,no=12,missing=11,gain=2.21886778,cover=6385.24805
			11:leaf=-0.00321380026,cover=6250.50928
			12:leaf=-0.0161407869,cover=134.7388
		6:[power<44.5] yes=13,no=14,missing=13,gain=5.93643045,cover=32665.0156
			13:leaf=-0.00191204553,cover=11979.9795
			14:leaf=0.000885213434,cover=20685.0352
booster[112]:
0:[power<75.5] yes=1,no=2,missing=1,gain=3.38032961,cover=41121.5859
	1:[fuel<0.5] yes=3,no=4,missing=3,gain=6.12798977,cover=35435.1719
		3:[power<58.5] yes=7,no=8,missing=7,gain=4.77896595,cover=13098.1729
			7:leaf=0.00193869253,cover=10134.2285
			8:leaf=-0.00262571266,cover=2963.94385
		4:[bm<0.5] yes=9,no=10,missing=9,gain=3.40961647,cover=22337
			9:leaf=-0.00378071866,cover=6340.83838
			10:leaf=-0.00104055391,cover=15996.1621
	2:[ageph<20.5] yes=5,no=6,missing=5,gain=3.09119606,cover=5686.41064
		5:[power<76.5] yes=11,no=12,missing=11,gain=1.83930874,cover=16.7001286
			11:leaf=0.0700000003,cover=1.79670048
			12:leaf=0.0226314515,cover=14.9034281
		6:[power<171.5] yes=13,no=14,missing=13,gain=2.79425764,cover=5669.71045
			13:leaf=0.00151813147,cover=5639.25977
			14:leaf=0.0314095654,cover=30.4508247
booster[113]:
0:[fleet<0.5] yes=1,no=2,missing=1,gain=3.35819244,cover=41102.9258
	1:[agec<1.5] yes=3,no=4,missing=3,gain=3.60731816,cover=39852.0273
		3:[coverage<1.5] yes=7,no=8,missing=7,gain=2.18607044,cover=2024.04883
			7:leaf=0.00585411815,cover=1473.43262
			8:leaf=-0.00152786181,cover=550.616272
		4:[agec<3.5] yes=9,no=10,missing=9,gain=5.15356159,cover=37827.9805
			9:leaf=-0.00314070168,cover=6126.75098
			10:leaf=2.72411908e-05,cover=31701.2285
	2:[ageph<83.5] yes=5,no=6,missing=5,gain=2.13430285,cover=1250.89771
		5:[power<126] yes=11,no=12,missing=11,gain=1.98057127,cover=1238.09045
			11:leaf=-0.00633201515,cover=1228.03174
			12:leaf=0.0362157598,cover=10.0587063
		6:[agec<7.5] yes=13,no=14,missing=13,gain=2.612813,cover=12.8073692
			13:leaf=-0.0139668062,cover=5.99485779
			14:leaf=0.0700000003,cover=6.81251192
booster[114]:
0:[agec<16.5] yes=1,no=2,missing=1,gain=3.27777052,cover=41085.418
	1:[bm<13.5] yes=3,no=4,missing=3,gain=3.28427958,cover=40462.3398
		3:[coverage<1.5] yes=7,no=8,missing=7,gain=3.01838398,cover=39432.1406
			7:leaf=-0.00148788258,cover=16192.4648
			8:leaf=0.00029052209,cover=23239.6738
		4:[agec<12.5] yes=9,no=10,missing=9,gain=1.32097864,cover=1030.2019
			9:leaf=0.00386395748,cover=893.010376
			10:leaf=0.0143805472,cover=137.191528
	2:[power<31.5] yes=5,no=6,missing=5,gain=2.54528856,cover=623.077454
		5:[ageph<22.5] yes=11,no=12,missing=11,gain=1.31617022,cover=40.4283333
			11:leaf=0.0183222294,cover=4.1434927
			12:leaf=-0.0375984386,cover=36.2848396
		6:[ageph<24.5] yes=13,no=14,missing=13,gain=1.96246481,cover=582.649109
			13:leaf=0.0170249287,cover=34.2360039
			14:leaf=-0.00734126894,cover=548.413147
booster[115]:
0:[agec<27.5] yes=1,no=2,missing=1,gain=3.14780855,cover=41068.8555
	1:[ageph<59.5] yes=3,no=4,missing=3,gain=3.15443802,cover=41035.6055
		3:[fleet<0.5] yes=7,no=8,missing=7,gain=3.35191894,cover=33882.2539
			7:leaf=0.000204542303,cover=33012.4023
			8:leaf=-0.0060808002,cover=869.849854
		4:[ageph<77.5] yes=9,no=10,missing=9,gain=3.31299067,cover=7153.35498
			9:leaf=-0.00289549422,cover=6592.87598
			10:leaf=0.00510694319,cover=560.478943
	2:[ageph<67.5] yes=5,no=6,missing=5,gain=1.09331632,cover=33.2483292
		5:[ageph<30.5] yes=11,no=12,missing=11,gain=0.615650177,cover=31.0373554
			11:leaf=-0.00958405156,cover=7.72521687
			12:leaf=-0.0435028188,cover=23.3121395
		6:[power<58] yes=13,no=14,missing=13,gain=0.790280938,cover=2.21097112
			13:leaf=-0.0251833387,cover=1.02893317
			14:leaf=0.0647567734,cover=1.18203795
booster[116]:
0:[power<25.5] yes=1,no=2,missing=1,gain=3.09808207,cover=41053.1289
	1:[ageph<20.5] yes=3,no=4,missing=3,gain=1.80258489,cover=269.532684
		3:[agec<14.5] yes=7,no=8,missing=7,gain=0.431871891,cover=3.38929415
			7:leaf=0.0700000003,cover=1.74467635
			8:leaf=0.00693132123,cover=1.6446178
		4:[bm<14.5] yes=9,no=10,missing=9,gain=1.44816637,cover=266.143402
			9:leaf=-0.0130020529,cover=262.245667
			10:leaf=0.0421509594,cover=3.89773464
	2:[bm<0.5] yes=5,no=6,missing=5,gain=3.15896249,cover=40783.5977
		5:[sex<0.5] yes=11,no=12,missing=11,gain=2.0959444,cover=11616.002
			11:leaf=-0.000715100148,cover=2385.15674
			12:leaf=-0.00257696887,cover=9230.84473
		6:[agec<10.5] yes=13,no=14,missing=13,gain=3.1615591,cover=29167.5957
			13:leaf=-0.000323998654,cover=22189.332
			14:leaf=0.00211622519,cover=6978.26367
booster[117]:
0:[power<75.5] yes=1,no=2,missing=1,gain=3.11117482,cover=41032.1797
	1:[fuel<0.5] yes=3,no=4,missing=3,gain=5.5368166,cover=35347.4531
		3:[power<58.5] yes=7,no=8,missing=7,gain=4.19466782,cover=13088.8496
			7:leaf=0.0019070002,cover=10140.458
			8:leaf=-0.00237770448,cover=2948.39136
		4:[ageph<32.5] yes=9,no=10,missing=9,gain=2.91746712,cover=22258.6035
